{"learner":{"attributes":{"best_iteration":"301","best_score":"0.11781367444504862","scikit_learn":"{\"_estimator_type\": \"classifier\"}"},"feature_names":["processing_time_ms","is_international","avg_monthly_txn_count","avg_monthly_txn_value_npr","international_txn_history","has_linked_esewa","has_linked_khalti","num_beneficiaries_registered","is_dormant","churn_risk_score","has_terminal","has_session","device_id_missing","has_notes","amount_log","hour_of_day","day_of_week","is_weekend","is_night","account_age_days","amount_vs_profile_ratio","risk_tier_ord","kyc_tier_ord","income_band_ord","txn_type_ATM_WITHDRAWAL","txn_type_CARD_POS","txn_type_ESEWA_P2P","txn_type_KHALTI_QR","txn_type_MOBILE_TOPUP","txn_type_RTGS","txn_type_SWIFT_OUTWARD","txn_type_UTILITY_BILL","currency_NPR","currency_USD","channel_ATM","channel_BRANCH","channel_MOBILE_APP","channel_WEB","auth_method_BIOMETRIC","auth_method_CARD_PIN","auth_method_MPIN","auth_method_OTP_EMAIL","auth_method_OTP_SMS","merchant_category_code_4814.0","merchant_category_code_4829.0","merchant_category_code_5311.0","merchant_category_code_5411.0","merchant_category_code_5691.0","merchant_category_code_5812.0","merchant_category_code_5912.0","merchant_category_code_6011.0","merchant_category_code_6012.0","merchant_category_code_7011.0","merchant_category_code_UNKNOWN","response_code_0","response_code_5","response_code_51","response_code_57","age_group_18-24","age_group_25-34","age_group_35-44","age_group_45-54","age_group_55+","district_Bhaktapur","district_Biratnagar","district_Butwal","district_Chitwan","district_Dharan","district_Hetauda","district_Kathmandu","district_Lalitpur","district_Nepalgunj","district_Pokhara","province_Bagmati","province_Gandaki","province_Koshi","province_Lumbini","occupation_category_BUSINESS_OWNER","occupation_category_GOVERNMENT","occupation_category_REMITTANCE_DEPENDENT","occupation_category_SALARIED","occupation_category_SELF_EMPLOYED","occupation_category_STUDENT","primary_channel_ATM","primary_channel_BRANCH","primary_channel_MOBILE_APP","primary_channel_WEB"],"feature_types":["int","int","int","float","int","int","int","int","int","float","int","int","int","int","float","int","int","int","int","int","float","int","int","int","int","int","int","int","int","int","int","int","int","int","int","int","int","int","int","int","int","int","int","int","int","int","int","int","int","int","int","int","int","int","int","int","int","int","int","int","int","int","int","int","int","int","int","int","int","int","int","int","int","int","int","int","int","int","int","int","int","int","int","int","int","int","int"],"gradient_booster":{"model":{"cats":{"enc":[],"feature_segments":[],"sorted_idx":[]},"gbtree_model_param":{"num_parallel_tree":"1","num_trees":"332"},"iteration_indptr":[0,1,2,3,4,5,6,7,8,9,10,11,12,13,14,15,16,17,18,19,20,21,22,23,24,25,26,27,28,29,30,31,32,33,34,35,36,37,38,39,40,41,42,43,44,45,46,47,48,49,50,51,52,53,54,55,56,57,58,59,60,61,62,63,64,65,66,67,68,69,70,71,72,73,74,75,76,77,78,79,80,81,82,83,84,85,86,87,88,89,90,91,92,93,94,95,96,97,98,99,100,101,102,103,104,105,106,107,108,109,110,111,112,113,114,115,116,117,118,119,120,121,122,123,124,125,126,127,128,129,130,131,132,133,134,135,136,137,138,139,140,141,142,143,144,145,146,147,148,149,150,151,152,153,154,155,156,157,158,159,160,161,162,163,164,165,166,167,168,169,170,171,172,173,174,175,176,177,178,179,180,181,182,183,184,185,186,187,188,189,190,191,192,193,194,195,196,197,198,199,200,201,202,203,204,205,206,207,208,209,210,211,212,213,214,215,216,217,218,219,220,221,222,223,224,225,226,227,228,229,230,231,232,233,234,235,236,237,238,239,240,241,242,243,244,245,246,247,248,249,250,251,252,253,254,255,256,257,258,259,260,261,262,263,264,265,266,267,268,269,270,271,272,273,274,275,276,277,278,279,280,281,282,283,284,285,286,287,288,289,290,291,292,293,294,295,296,297,298,299,300,301,302,303,304,305,306,307,308,309,310,311,312,313,314,315,316,317,318,319,320,321,322,323,324,325,326,327,328,329,330,331,332],"tree_info":[0,0,0,0,0,0,0,0,0,0,0,0,0,0,0,0,0,0,0,0,0,0,0,0,0,0,0,0,0,0,0,0,0,0,0,0,0,0,0,0,0,0,0,0,0,0,0,0,0,0,0,0,0,0,0,0,0,0,0,0,0,0,0,0,0,0,0,0,0,0,0,0,0,0,0,0,0,0,0,0,0,0,0,0,0,0,0,0,0,0,0,0,0,0,0,0,0,0,0,0,0,0,0,0,0,0,0,0,0,0,0,0,0,0,0,0,0,0,0,0,0,0,0,0,0,0,0,0,0,0,0,0,0,0,0,0,0,0,0,0,0,0,0,0,0,0,0,0,0,0,0,0,0,0,0,0,0,0,0,0,0,0,0,0,0,0,0,0,0,0,0,0,0,0,0,0,0,0,0,0,0,0,0,0,0,0,0,0,0,0,0,0,0,0,0,0,0,0,0,0,0,0,0,0,0,0,0,0,0,0,0,0,0,0,0,0,0,0,0,0,0,0,0,0,0,0,0,0,0,0,0,0,0,0,0,0,0,0,0,0,0,0,0,0,0,0,0,0,0,0,0,0,0,0,0,0,0,0,0,0,0,0,0,0,0,0,0,0,0,0,0,0,0,0,0,0,0,0,0,0,0,0,0,0,0,0,0,0,0,0,0,0,0,0,0,0,0,0,0,0,0,0,0,0,0,0,0,0,0,0,0,0,0,0,0,0,0,0,0,0,0,0,0,0,0,0,0,0,0,0,0,0],"trees":[{"base_weights":[-1.463142E-3,3.230503E-1,-1.1129249E0,9.540723E-1,-3.9655852E-1,-7.248666E-1,-1.4367185E0,1.0015061E-1,-9.5437413E-1,-1.6809426E-1,-1.6785877E0,-3.536191E-1,-1.2533884E0,-1.183248E0,-1.6539215E0,-6.151703E-1,-1.3972002E0,3.5776863E-1,-1.1786829E0,-1.5305376E0,-1.837204E0,-6.1073536E-3,-1.5655305E0,-9.3323845E-1,-1.5352354E0,1.0005391E-1,-1.7051139E0,-1.5329558E0,-1.805402E0,-1.7242856E-1,-1.7291424E0,-1.2447834E0,-1.8496041E0,8.067743E-1,-1.7322215E0,-1.3737289E0,1.0002213E-1,-1.307477E0,-9.682571E-2,-1.7306106E0,-1.8957024E0,4.2357907E-1,-7.3067963E-1,-1.2933313E0,-1.7952962E0,9.99256E-2,-1.5597419E0,-1.325535E0,-1.7755198E0,-1.5751939E0,-1.8466133E0,-1.2916659E0,-9.487816E-2,-1.7463596E0,-9.630752E-2,3.8936682E-2,-8.087025E-2,-8.853289E-2,-6.77134E-2,-5.1282585E-2,-8.3852895E-2,-9.3714006E-2,-8.098902E-2,7.037827E-2,-8.8076204E-2,-7.8749344E-2,-9.112442E-2,-5.891159E-2,-8.542525E-2,-2.661301E-2,-9.547391E-2,-5.6863513E-2,-8.8710606E-2,-9.613113E-2,-8.945757E-2,4.2226594E-2,-6.2305003E-2,-8.371971E-3,-5.9614386E-2,9.9115744E-2,-8.77971E-2,-6.4016E-2,-9.146975E-2,-4.6189263E-2,-8.033343E-2,-5.099386E-2,-9.5158145E-2,-8.2221024E-2,-9.4668366E-2,-7.179891E-2,-9.4198994E-2,-8.913205E-2,-9.553289E-2,-5.8233924E-2,-9.6191265E-2,-8.333916E-2,-9.546026E-2],"categories":[],"categories_nodes":[],"categories_segments":[],"categories_sizes":[],"default_left":[0,0,0,0,0,0,0,0,0,0,0,0,0,0,0,0,0,0,0,0,0,0,0,0,0,0,0,0,0,0,0,0,0,0,0,0,0,0,0,0,0,0,0,0,0,0,0,0,0,0,0,0,0,0,0,0,0,0,0,0,0,0,0,0,0,0,0,0,0,0,0,0,0,0,0,0,0,0,0,0,0,0,0,0,0,0,0,0,0,0,0,0,0,0,0,0,0],"id":0,"left_children":[1,3,5,7,9,11,13,-1,15,17,19,21,23,25,27,29,31,33,35,37,39,41,43,45,47,-1,49,51,53,55,57,59,61,63,65,67,-1,69,-1,71,73,75,77,79,81,-1,83,85,87,89,91,93,-1,95,-1,-1,-1,-1,-1,-1,-1,-1,-1,-1,-1,-1,-1,-1,-1,-1,-1,-1,-1,-1,-1,-1,-1,-1,-1,-1,-1,-1,-1,-1,-1,-1,-1,-1,-1,-1,-1,-1,-1,-1,-1,-1,-1],"loss_changes":[4.521906E4,4.406428E4,3.558918E3,1.0350059E5,1.3278944E4,2.5285806E3,8.483047E2,0E0,2.7537305E3,2.0450508E4,1.5821484E2,3.189168E3,4.7840625E2,1.1852786E4,1.4958398E2,5.122085E3,5.461211E2,2.3754098E4,8.169588E3,3.191953E2,1.7331055E1,1.8328458E3,1.0321777E2,4.580751E3,1.400669E2,0E0,1.09728516E2,4.0483398E2,2.2914062E1,1.0217545E4,4.357129E1,5.6210645E2,8.318848E0,3.215257E4,6.066504E1,8.101914E2,0E0,1.0704817E3,0E0,2.8580322E1,2.6518555E0,2.5984507E3,5.6958057E2,1.1793887E3,1.3681152E1,0E0,5.981299E1,2.6523267E2,1.7191406E1,1.3489893E2,8.5859375E0,2.2164893E2,0E0,2.9036133E1,0E0,0E0,0E0,0E0,0E0,0E0,0E0,0E0,0E0,0E0,0E0,0E0,0E0,0E0,0E0,0E0,0E0,0E0,0E0,0E0,0E0,0E0,0E0,0E0,0E0,0E0,0E0,0E0,0E0,0E0,0E0,0E0,0E0,0E0,0E0,0E0,0E0,0E0,0E0,0E0,0E0,0E0,0E0],"parents":[2147483647,0,0,1,1,2,2,3,3,4,4,5,5,6,6,8,8,9,9,10,10,11,11,12,12,13,13,14,14,15,15,16,16,17,17,18,18,19,19,20,20,21,21,22,22,23,23,24,24,26,26,27,27,28,28,29,29,30,30,31,31,32,32,33,33,34,34,35,35,37,37,39,39,40,40,41,41,42,42,43,43,44,44,46,46,47,47,48,48,49,49,50,50,51,51,53,53],"right_children":[2,4,6,8,10,12,14,-1,16,18,20,22,24,26,28,30,32,34,36,38,40,42,44,46,48,-1,50,52,54,56,58,60,62,64,66,68,-1,70,-1,72,74,76,78,80,82,-1,84,86,88,90,92,94,-1,96,-1,-1,-1,-1,-1,-1,-1,-1,-1,-1,-1,-1,-1,-1,-1,-1,-1,-1,-1,-1,-1,-1,-1,-1,-1,-1,-1,-1,-1,-1,-1,-1,-1,-1,-1,-1,-1,-1,-1,-1,-1,-1,-1],"split_conditions":[1E0,1E0,1E0,1E0,1E0,1E0,1E0,1.0015061E-1,1E0,1E0,1E0,1E0,1E0,1E0,1E0,1E0,1E0,1E0,9.644158E0,1E0,1E0,1E0,1E0,1E0,1E0,1.0005391E-1,1E0,1E0,2E0,1E0,9.644158E0,1E0,9.644158E0,1E0,1E0,1E0,1.0002213E-1,1E0,-9.682571E-2,1E0,1.8861594E-2,1E0,1E0,1E0,1.0746626E5,9.99256E-2,1E0,1E0,1.1E1,1E0,1E0,1E0,-9.487816E-2,1E0,-9.630752E-2,3.8936682E-2,-8.087025E-2,-8.853289E-2,-6.77134E-2,-5.1282585E-2,-8.3852895E-2,-9.3714006E-2,-8.098902E-2,7.037827E-2,-8.8076204E-2,-7.8749344E-2,-9.112442E-2,-5.891159E-2,-8.542525E-2,-2.661301E-2,-9.547391E-2,-5.6863513E-2,-8.8710606E-2,-9.613113E-2,-8.945757E-2,4.2226594E-2,-6.2305003E-2,-8.371971E-3,-5.9614386E-2,9.9115744E-2,-8.77971E-2,-6.4016E-2,-9.146975E-2,-4.6189263E-2,-8.033343E-2,-5.099386E-2,-9.5158145E-2,-8.2221024E-2,-9.4668366E-2,-7.179891E-2,-9.4198994E-2,-8.913205E-2,-9.553289E-2,-5.8233924E-2,-9.6191265E-2,-8.333916E-2,-9.546026E-2],"split_indices":[10,36,13,37,27,85,11,0,73,26,73,86,11,24,36,76,17,28,14,75,5,73,11,24,73,0,85,37,22,75,14,26,14,31,5,6,0,76,0,54,20,76,5,24,3,0,54,76,15,86,73,76,0,18,0,0,0,0,0,0,0,0,0,0,0,0,0,0,0,0,0,0,0,0,0,0,0,0,0,0,0,0,0,0,0,0,0,0,0,0,0,0,0,0,0,0,0],"split_type":[0,0,0,0,0,0,0,0,0,0,0,0,0,0,0,0,0,0,0,0,0,0,0,0,0,0,0,0,0,0,0,0,0,0,0,0,0,0,0,0,0,0,0,0,0,0,0,0,0,0,0,0,0,0,0,0,0,0,0,0,0,0,0,0,0,0,0,0,0,0,0,0,0,0,0,0,0,0,0,0,0,0,0,0,0,0,0,0,0,0,0,0,0,0,0,0,0],"sum_hessian":[1.2536821E5,9.703702E4,2.8331184E4,5.170063E4,4.5336395E4,1.288822E4,1.5442964E4,3.336317E4,1.8337457E4,3.848016E4,6.856234E3,7.5714824E3,5.316738E3,7.1294834E3,8.31348E3,1.0384976E4,7.9524814E3,2.5310441E4,1.316972E4,3.5517417E3,3.3044924E3,5.8849863E3,1.6864961E3,2.4912441E3,2.8254934E3,1.0034977E3,6.125986E3,4.6284893E3,3.6849915E3,7.432233E3,2.9527432E3,5.9512363E3,2.0012454E3,2.0834951E4,4.4754897E3,1.2408971E4,7.607482E2,2.2949946E3,1.2567471E3,1.1817472E3,2.122745E3,3.6944915E3,2.1904949E3,7.7499817E2,9.1149786E2,4.38249E2,2.052995E3,1.5122465E3,1.313247E3,3.1999927E3,2.9259932E3,2.7879934E3,1.8404957E3,2.4852441E3,1.1997472E3,4.4822397E3,2.9499932E3,2.654994E3,2.977493E2,3.9514907E3,1.9997454E3,1.8007458E3,2.0049953E2,1.688546E4,3.9494907E3,1.6389962E3,2.8364934E3,7.836982E3,4.5719893E3,1.0039977E3,1.290997E3,8.274981E1,1.0989974E3,1.6809961E3,4.4174896E2,2.9509932E3,7.434983E2,9.872477E2,1.2032472E3,9.549978E1,6.794984E2,5.8999863E1,8.5249805E2,1.4249966E2,1.9104956E3,9.907477E2,5.214988E2,6.2874854E2,6.844984E2,2.2094949E3,9.904977E2,1.4782466E3,1.4477466E3,2.3239946E3,4.6399893E2,1.6769961E3,8.082481E2],"tree_param":{"num_deleted":"0","num_feature":"87","num_nodes":"97","size_leaf_vector":"1"}},{"base_weights":[8.6742715E-4,3.0912843E-1,-1.0579093E0,5.2920383E-1,-1.470475E0,-6.893296E-1,-1.3669559E0,9.9105465E-1,-8.4511214E-1,-1.3522838E0,-1.7290488E0,-4.6644124E-1,-1.4839494E0,-1.1237904E0,-1.574475E0,1.2933857E0,-1.5902536E0,-1.038133E0,1.17955595E-1,-1.1223295E0,-1.613967E0,-1.6807861E0,-9.284817E-2,-9.4514854E-2,-1.01126E0,-1.3492758E0,-1.785178E0,9.528347E-2,-1.6242034E0,-1.4722453E0,-1.7376581E0,1.6343482E0,-1.5914855E0,-1.4478722E0,-1.7471349E0,-8.0643505E-1,-1.4614792E0,-6.338148E-1,1.826477E0,-7.930405E-1,-1.7800009E0,-1.5201482E0,-1.8104991E0,-1.6845598E0,7.160717E-2,3.5133195E-1,-1.4713751E0,-7.536085E-1,-1.4368198E0,-1.2323288E0,-1.8970804E0,-9.40199E-2,-1.7392296E0,-1.4962735E0,-1.7606375E0,-1.3866742E0,-9.207528E-2,-1.6885563E0,-9.262249E-2,8.881478E-2,-9.18218E-2,-7.1496256E-2,-8.553355E-2,-6.2165584E-2,-9.084846E-2,-8.42657E-2,-9.217678E-2,-2.8734565E-2,-7.110878E-2,-6.670289E-2,-8.735488E-2,-4.9887244E-2,1.2893741E-2,9.255575E-2,-7.437812E-2,6.015519E-3,-8.87772E-2,-8.542969E-2,-9.1812596E-2,9.654182E-2,-7.871776E-2,-7.931541E-2,-9.1238216E-2,-8.087368E-2,-9.1029316E-2,5.9144057E-2,-7.400176E-2,-7.444284E-2,8.994376E-2,9.898891E-2,-6.55147E-2,-7.295197E-2,9.308078E-2,-3.7762806E-2,-7.9254024E-2,-9.652947E-2,-7.900159E-2,-8.966922E-2,-8.025491E-2,-6.5498196E-2,-9.125068E-2,-8.54256E-2,-9.130269E-2,-5.156372E-2,-8.182618E-2,-8.130112E-2,-9.067733E-2],"categories":[],"categories_nodes":[],"categories_segments":[],"categories_sizes":[],"default_left":[0,0,0,0,0,0,0,0,0,0,0,0,0,0,0,0,0,0,0,0,0,0,0,0,0,0,0,0,0,0,0,0,0,0,0,0,0,0,0,0,0,0,0,0,0,0,0,0,0,0,0,0,0,0,0,0,0,0,0,0,0,0,0,0,0,0,0,0,0,0,0,0,0,0,0,0,0,0,0,0,0,0,0,0,0,0,0,0,0,0,0,0,0,0,0,0,0,0,0,0,0,0,0,0,0,0,0],"id":1,"left_children":[1,3,5,7,9,11,13,15,17,19,21,23,25,27,29,31,33,35,37,39,41,43,-1,45,47,49,51,-1,53,55,57,59,61,63,65,67,69,71,73,75,77,79,81,83,-1,85,87,89,91,93,95,-1,97,99,101,103,-1,105,-1,-1,-1,-1,-1,-1,-1,-1,-1,-1,-1,-1,-1,-1,-1,-1,-1,-1,-1,-1,-1,-1,-1,-1,-1,-1,-1,-1,-1,-1,-1,-1,-1,-1,-1,-1,-1,-1,-1,-1,-1,-1,-1,-1,-1,-1,-1,-1,-1],"loss_changes":[4.0907777E4,3.8019855E4,3.2184688E3,5.4836336E4,3.2417188E2,2.282642E3,7.739297E2,5.0465133E4,4.0396885E3,4.3969043E2,1.7546875E1,2.0403086E3,1.12137695E2,1.0738714E4,1.3576172E2,5.6938617E4,1.4891016E2,1.7744824E3,4.662382E3,8.450298E2,6.048047E1,3.1091309E1,0E0,3.674745E3,4.4683398E2,1.2292871E2,5.32959E-1,0E0,1.0345508E2,1.5873535E2,1.4841797E1,2.5506625E4,1.1537305E2,2.665327E2,1.6088867E1,1.6689487E3,2.3065918E2,8.18322E2,9.331738E1,2.3390076E3,2.097168E0,4.3844824E2,6.3305664E-1,1.9310547E1,0E0,6.8883447E3,8.6388916E1,3.8776658E3,1.155437E2,2.7045142E2,5.845947E-1,0E0,1.477417E0,1.9014307E2,6.890625E0,3.6664893E2,0E0,1.4592773E1,0E0,0E0,0E0,0E0,0E0,0E0,0E0,0E0,0E0,0E0,0E0,0E0,0E0,0E0,0E0,0E0,0E0,0E0,0E0,0E0,0E0,0E0,0E0,0E0,0E0,0E0,0E0,0E0,0E0,0E0,0E0,0E0,0E0,0E0,0E0,0E0,0E0,0E0,0E0,0E0,0E0,0E0,0E0,0E0,0E0,0E0,0E0,0E0,0E0],"parents":[2147483647,0,0,1,1,2,2,3,3,4,4,5,5,6,6,7,7,8,8,9,9,10,10,11,11,12,12,13,13,14,14,15,15,16,16,17,17,18,18,19,19,20,20,21,21,23,23,24,24,25,25,26,26,28,28,29,29,30,30,31,31,32,32,33,33,34,34,35,35,36,36,37,37,38,38,39,39,40,40,41,41,42,42,43,43,45,45,46,46,47,47,48,48,49,49,50,50,52,52,53,53,54,54,55,55,57,57],"right_children":[2,4,6,8,10,12,14,16,18,20,22,24,26,28,30,32,34,36,38,40,42,44,-1,46,48,50,52,-1,54,56,58,60,62,64,66,68,70,72,74,76,78,80,82,84,-1,86,88,90,92,94,96,-1,98,100,102,104,-1,106,-1,-1,-1,-1,-1,-1,-1,-1,-1,-1,-1,-1,-1,-1,-1,-1,-1,-1,-1,-1,-1,-1,-1,-1,-1,-1,-1,-1,-1,-1,-1,-1,-1,-1,-1,-1,-1,-1,-1,-1,-1,-1,-1,-1,-1,-1,-1,-1,-1],"split_conditions":[1E0,1E0,1E0,1E0,2E0,1E0,1E0,1E0,3.2920096E-2,1E0,1E0,1E0,2E0,1E0,1E0,1E0,1E0,1E0,4.001686E5,1E0,1E0,5E0,-9.284817E-2,1E0,1E0,1E0,1.6789176E-3,9.528347E-2,1E0,1E0,1E0,1E0,1E0,1E0,1E0,2E0,1E0,1.6187437E-1,1.9E1,1E0,8.9262325E5,6E0,1E0,1E0,7.160717E-2,1E0,5E0,1E0,5E0,1E0,1.7951315E6,-9.40199E-2,1.2423108E6,1E0,1E0,1E0,-9.207528E-2,1E0,-9.262249E-2,8.881478E-2,-9.18218E-2,-7.1496256E-2,-8.553355E-2,-6.2165584E-2,-9.084846E-2,-8.42657E-2,-9.217678E-2,-2.8734565E-2,-7.110878E-2,-6.670289E-2,-8.735488E-2,-4.9887244E-2,1.2893741E-2,9.255575E-2,-7.437812E-2,6.015519E-3,-8.87772E-2,-8.542969E-2,-9.1812596E-2,9.654182E-2,-7.871776E-2,-7.931541E-2,-9.1238216E-2,-8.087368E-2,-9.1029316E-2,5.9144057E-2,-7.400176E-2,-7.444284E-2,8.994376E-2,9.898891E-2,-6.55147E-2,-7.295197E-2,9.308078E-2,-3.7762806E-2,-7.9254024E-2,-9.652947E-2,-7.900159E-2,-8.966922E-2,-8.025491E-2,-6.5498196E-2,-9.125068E-2,-8.54256E-2,-9.130269E-2,-5.156372E-2,-8.182618E-2,-8.130112E-2,-9.067733E-2],"split_indices":[10,27,13,26,22,17,11,28,20,73,17,73,22,34,6,31,73,6,3,76,18,16,0,76,34,75,20,0,73,76,35,29,13,75,6,22,37,20,15,75,3,15,54,18,0,75,16,11,16,73,3,0,3,75,21,73,0,37,0,0,0,0,0,0,0,0,0,0,0,0,0,0,0,0,0,0,0,0,0,0,0,0,0,0,0,0,0,0,0,0,0,0,0,0,0,0,0,0,0,0,0,0,0,0,0,0,0],"split_type":[0,0,0,0,0,0,0,0,0,0,0,0,0,0,0,0,0,0,0,0,0,0,0,0,0,0,0,0,0,0,0,0,0,0,0,0,0,0,0,0,0,0,0,0,0,0,0,0,0,0,0,0,0,0,0,0,0,0,0,0,0,0,0,0,0,0,0,0,0,0,0,0,0,0,0,0,0,0,0,0,0,0,0,0,0,0,0,0,0,0,0,0,0,0,0,0,0,0,0,0,0,0,0,0,0,0,0],"sum_hessian":[1.2533605E5,9.707387E4,2.826218E4,8.639099E4,1.0682877E4,1.2891071E4,1.5371107E4,6.466128E4,2.1729707E4,7.335937E3,3.3469402E3,1.006848E4,2.8225903E3,7.080629E3,8.2904795E3,5.788241E4,6.7788745E3,1.8101645E4,3.6280618E3,3.9075027E3,3.4284343E3,2.4403318E3,9.066084E2,5.9843643E3,4.084117E3,1.9543265E3,8.6826373E2,1.0033886E3,6.07724E3,5.1033745E3,3.1871047E3,5.1764773E4,6.1176353E3,3.5590247E3,3.21985E3,1.1700728E4,6.4009175E3,2.5199026E3,1.108159E3,2.6052751E3,1.3022275E3,2.3265437E3,1.1018906E3,2.4378354E3,2.4963994E0,4.52111E3,1.4632543E3,2.5456477E3,1.5384692E3,1.6131876E3,3.4113885E2,2.6961346E2,5.9865027E2,3.1425422E3,2.9346978E3,4.147096E3,9.562783E2,2.2432656E3,9.438391E2,4.973136E4,2.0334138E3,2.6026484E3,3.5149868E3,2.2927227E3,1.266302E3,1.9730397E3,1.2468104E3,8.502579E3,3.1981482E3,4.4301753E3,1.9707423E3,1.7894471E3,7.304556E2,1.1004196E3,7.7395005E0,1.350607E3,1.2546682E3,5.8763544E2,7.1459204E2,3.5444168E1,2.2910996E3,7.263101E1,1.0292595E3,1.6412747E3,7.965607E2,3.109546E3,1.4115638E3,1.4560156E3,7.238656E0,4.3029504E2,2.1153525E3,1.5287288E3,9.740491E0,6.8708856E2,9.260991E2,3.0392746E2,3.7211395E1,4.1765393E2,1.8099629E2,2.0089679E3,1.1335745E3,1.6483584E3,1.2863395E3,1.714055E3,2.433041E3,1.5045387E3,7.3872687E2],"tree_param":{"num_deleted":"0","num_feature":"87","num_nodes":"107","size_leaf_vector":"1"}},{"base_weights":[-6.1396663E-6,2.9430577E-1,-1.0089896E0,8.7509376E-1,-3.6703232E-1,-6.5857756E-1,-1.3031263E0,1.840719E0,-8.773153E-1,-1.596998E-1,-1.5248253E0,-3.1146666E-1,-1.1568593E0,-1.0989165E0,-1.5346545E0,1.833751E0,9.6024066E-2,-5.663845E-1,-1.2837194E0,3.210053E-1,-1.0833795E0,-1.3875574E0,-1.6739254E0,1.9081851E-2,-1.5275544E0,-9.4792336E-1,-1.540336E0,-7.9925865E-1,-1.720914E0,-1.4273261E0,-1.6879883E0,1.8322475E0,9.633139E-2,-1.5998864E-1,-1.5993689E0,-1.1432806E0,-1.7032801E0,7.298108E-1,-1.577337E0,-9.14935E-1,-1.6091661E0,-1.1771381E0,-8.869477E-2,-1.5717298E0,-1.7294184E0,6.125371E-1,-1.5021969E0,-1.3652095E0,-1.7788608E0,-8.0173284E-1,-1.7134485E0,-1.3424947E0,-1.7057369E0,8.69457E-2,-1.6356032E0,-1.6490204E0,-8.868057E-2,9.0872854E-2,-1.6218554E0,-1.6352065E0,-8.715118E-2,9.156228E-2,9.849318E-2,3.63228E-2,-7.498503E-2,-7.73456E-2,-9.049144E-2,-4.690406E-2,-7.7402756E-2,-8.631815E-2,-8.060493E-2,6.382048E-2,-8.035703E-2,-7.499197E-2,-8.707439E-2,-3.8473953E-2,-8.4444456E-2,-7.557182E-2,-8.810007E-2,-2.3023186E-2,-8.734259E-2,-4.9426895E-2,-8.0672555E-2,-8.4293045E-2,-8.8597886E-2,9.7610064E-2,-7.280371E-2,-7.025893E-2,-9.393383E-2,9.567351E-2,-8.118031E-2,-8.236616E-2,-9.2572644E-2,-2.9711569E-2,-8.259109E-2,-7.908067E-2,-8.92409E-2,9.138641E-2,-7.907382E-2,-8.1741326E-2,-8.946761E-2,9.933717E-2,-8.7650955E-2,-7.467069E-2,-8.757352E-2,8.8079356E-2,-8.681444E-2,-7.531773E-2,-8.439515E-2,-7.8177504E-2,-8.9129925E-2],"categories":[],"categories_nodes":[],"categories_segments":[],"categories_sizes":[],"default_left":[0,0,0,0,0,0,0,0,0,0,0,0,0,0,0,0,0,0,0,0,0,0,0,0,0,0,0,0,0,0,0,0,0,0,0,0,0,0,0,0,0,0,0,0,0,0,0,0,0,0,0,0,0,0,0,0,0,0,0,0,0,0,0,0,0,0,0,0,0,0,0,0,0,0,0,0,0,0,0,0,0,0,0,0,0,0,0,0,0,0,0,0,0,0,0,0,0,0,0,0,0,0,0,0,0,0,0,0,0,0,0],"id":2,"left_children":[1,3,5,7,9,11,13,15,17,19,21,23,25,27,29,31,-1,33,35,37,39,41,43,45,47,49,51,53,55,57,59,61,-1,63,65,67,69,71,73,75,77,79,-1,81,83,85,87,89,91,93,95,97,99,101,103,105,-1,-1,107,109,-1,-1,-1,-1,-1,-1,-1,-1,-1,-1,-1,-1,-1,-1,-1,-1,-1,-1,-1,-1,-1,-1,-1,-1,-1,-1,-1,-1,-1,-1,-1,-1,-1,-1,-1,-1,-1,-1,-1,-1,-1,-1,-1,-1,-1,-1,-1,-1,-1,-1,-1],"loss_changes":[3.7005312E4,3.7055984E4,2.8995938E3,8.692125E4,1.0828311E4,2.2211196E3,7.216035E2,1.4875E1,2.3053047E3,1.6988389E4,1.3789551E2,3.0436768E3,4.2104395E2,1.5143213E3,1.1553516E2,7.265625E-1,0E0,4.340825E3,4.6409277E2,1.9530281E4,1.1583984E3,2.8836523E2,1.5879883E1,5.376679E3,6.3593506E1,3.8092505E2,5.8516113E1,4.0691145E3,7.088867E0,2.66813E3,5.7060547E0,5.234375E-1,0E0,8.815661E3,2.943164E1,4.9099756E2,1.3867188E0,2.6451926E4,5.4117188E1,1.1155557E3,4.4779297E1,9.4484546E2,0E0,2.675E1,9.321289E-1,1.1875363E4,5.8404785E1,8.3966284E2,2.9830322E0,5.0530225E2,2.3226318E0,6.4749475E2,3.0534668E0,9.324231E3,4.391797E1,3.4003516E2,0E0,0E0,2.784961E1,1.3263184E1,0E0,0E0,0E0,0E0,0E0,0E0,0E0,0E0,0E0,0E0,0E0,0E0,0E0,0E0,0E0,0E0,0E0,0E0,0E0,0E0,0E0,0E0,0E0,0E0,0E0,0E0,0E0,0E0,0E0,0E0,0E0,0E0,0E0,0E0,0E0,0E0,0E0,0E0,0E0,0E0,0E0,0E0,0E0,0E0,0E0,0E0,0E0,0E0,0E0,0E0,0E0],"parents":[2147483647,0,0,1,1,2,2,3,3,4,4,5,5,6,6,7,7,8,8,9,9,10,10,11,11,12,12,13,13,14,14,15,15,17,17,18,18,19,19,20,20,21,21,22,22,23,23,24,24,25,25,26,26,27,27,28,28,29,29,30,30,31,31,33,33,34,34,35,35,36,36,37,37,38,38,39,39,40,40,41,41,43,43,44,44,45,45,46,46,47,47,48,48,49,49,50,50,51,51,52,52,53,53,54,54,55,55,58,58,59,59],"right_children":[2,4,6,8,10,12,14,16,18,20,22,24,26,28,30,32,-1,34,36,38,40,42,44,46,48,50,52,54,56,58,60,62,-1,64,66,68,70,72,74,76,78,80,-1,82,84,86,88,90,92,94,96,98,100,102,104,106,-1,-1,108,110,-1,-1,-1,-1,-1,-1,-1,-1,-1,-1,-1,-1,-1,-1,-1,-1,-1,-1,-1,-1,-1,-1,-1,-1,-1,-1,-1,-1,-1,-1,-1,-1,-1,-1,-1,-1,-1,-1,-1,-1,-1,-1,-1,-1,-1,-1,-1,-1,-1,-1,-1],"split_conditions":[1E0,1E0,1E0,1E0,1E0,1E0,1E0,1E0,1E0,1E0,1E0,1E0,1E0,1E0,1E0,1E0,9.6024066E-2,1E0,1E0,1E0,1E0,1E0,1E0,1E0,1E0,1E0,1E0,1E0,1E0,1E0,1E0,1E0,9.633139E-2,1E0,1E0,1E0,6.16E2,1E0,1E0,1E0,1E0,1E0,-8.869477E-2,1E0,1E0,1E0,4E0,1E0,1E0,1E0,1.8E1,1E0,1E0,1E0,1E0,1E0,-8.868057E-2,9.0872854E-2,1E0,1E0,-8.715118E-2,9.156228E-2,9.849318E-2,3.63228E-2,-7.498503E-2,-7.73456E-2,-9.049144E-2,-4.690406E-2,-7.7402756E-2,-8.631815E-2,-8.060493E-2,6.382048E-2,-8.035703E-2,-7.499197E-2,-8.707439E-2,-3.8473953E-2,-8.4444456E-2,-7.557182E-2,-8.810007E-2,-2.3023186E-2,-8.734259E-2,-4.9426895E-2,-8.0672555E-2,-8.4293045E-2,-8.8597886E-2,9.7610064E-2,-7.280371E-2,-7.025893E-2,-9.393383E-2,9.567351E-2,-8.118031E-2,-8.236616E-2,-9.2572644E-2,-2.9711569E-2,-8.259109E-2,-7.908067E-2,-8.92409E-2,9.138641E-2,-7.907382E-2,-8.1741326E-2,-8.946761E-2,9.933717E-2,-8.7650955E-2,-7.467069E-2,-8.757352E-2,8.8079356E-2,-8.681444E-2,-7.531773E-2,-8.439515E-2,-7.8177504E-2,-8.9129925E-2],"split_indices":[10,36,13,37,27,85,73,26,73,26,73,83,6,75,24,27,0,76,17,28,17,75,5,84,24,39,11,76,11,11,85,31,0,75,38,26,0,31,18,41,6,76,0,54,85,86,23,11,5,41,7,24,36,72,11,24,0,0,5,83,0,0,0,0,0,0,0,0,0,0,0,0,0,0,0,0,0,0,0,0,0,0,0,0,0,0,0,0,0,0,0,0,0,0,0,0,0,0,0,0,0,0,0,0,0,0,0,0,0,0,0],"split_type":[0,0,0,0,0,0,0,0,0,0,0,0,0,0,0,0,0,0,0,0,0,0,0,0,0,0,0,0,0,0,0,0,0,0,0,0,0,0,0,0,0,0,0,0,0,0,0,0,0,0,0,0,0,0,0,0,0,0,0,0,0,0,0,0,0,0,0,0,0,0,0,0,0,0,0,0,0,0,0,0,0,0,0,0,0,0,0,0,0,0,0,0,0,0,0,0,0,0,0,0,0,0,0,0,0,0,0,0,0,0,0],"sum_hessian":[1.2461355E5,9.6473695E4,2.8139852E4,5.1364766E4,4.510893E4,1.2842968E4,1.5296884E4,3.3116574E4,1.8248188E4,3.825884E4,6.8500884E3,7.570715E3,5.272253E3,8.131009E3,7.165875E3,3.0477977E4,2.6385996E3,1.0339816E4,7.9083716E3,2.51637E4,1.3095141E4,3.571927E3,3.2781614E3,5.9534688E3,1.6172461E3,3.4150479E3,1.8572053E3,5.488915E3,2.6420938E3,4.2213687E3,2.9445063E3,3.001287E4,4.651077E2,7.421293E3,2.9185237E3,5.9278716E3,1.9805E3,2.0705428E4,4.4582705E3,9.919882E3,3.175259E3,2.3150698E3,1.2568573E3,1.1639517E3,2.1142095E3,4.2831836E3,1.670285E3,9.864365E2,6.3080963E2,2.8691755E3,5.458723E2,8.498224E2,1.0073829E3,2.6654534E3,2.8234617E3,1.1311676E3,1.5109261E3,2.3829094E2,3.9830776E3,1.5187017E3,1.4258047E3,2.9810143E4,2.027261E2,4.466446E3,2.954847E3,2.3429058E3,5.75618E2,3.935896E3,1.9919753E3,1.5661041E3,4.1439597E2,1.6780924E4,3.924504E3,3.0353704E3,1.4228999E3,8.352179E3,1.5677031E3,1.9434304E3,1.2318286E3,1.0260956E3,1.2889742E3,7.935815E1,1.0845935E3,1.0646804E3,1.049529E3,2.5996604E3,1.6835233E3,1.3318112E3,3.384738E2,7.159497E1,9.1484155E2,2.3275252E2,3.980571E2,2.3076028E3,5.615727E2,1.9985577E2,3.4601654E2,5.910563E1,7.9071674E2,5.5622504E2,4.5115787E2,1.311365E3,1.3540883E3,1.273967E3,1.5494946E3,2.7742813E1,1.1034248E3,1.4577117E3,2.525366E3,1.0297059E3,4.889958E2],"tree_param":{"num_deleted":"0","num_feature":"87","num_nodes":"111","size_leaf_vector":"1"}},{"base_weights":[-1.4203032E-3,2.2516476E-1,-1.0253649E0,3.9071858E-1,-1.1713446E0,-7.5017077E-1,-1.3652129E0,6.0282046E-1,-1.1532131E0,-1.205761E0,9.0208516E-2,-4.296464E-1,-1.1785313E0,-1.1825672E0,-1.549237E0,8.7692446E-1,-1.1108785E0,-1.1853095E0,8.886921E-2,-9.024722E-1,-1.4001908E0,-4.458552E-2,-1.4918321E0,-1.0489403E0,-1.6061215E0,-7.974049E-1,-1.5867167E0,-1.474611E0,-1.7197456E0,1.2498252E0,-8.7347645E-1,-1.1446658E0,9.090878E-2,-9.5378083E-1,-1.4638548E0,-6.1071754E-1,-1.2856525E0,-1.2861398E0,-1.654709E0,2.938867E-1,-1.5481752E0,-1.346151E0,-1.5974274E0,-4.249076E-1,-1.4159362E0,-8.426961E-2,-1.5295932E0,-9.091742E-1,8.733536E-2,-1.4873334E0,-8.4690236E-2,-1.3697597E0,-1.7021017E0,-8.710385E-2,8.6696155E-2,9.0966746E-2,-4.2274293E-2,-5.1372934E-2,1.6582994E-2,-4.2704668E-2,-6.911346E-2,-3.5160553E-2,-8.255484E-2,-6.64231E-2,-7.97712E-2,-1.6391227E-2,-7.385852E-2,-5.7070173E-2,-8.022958E-2,-5.7386827E-2,-8.0207996E-2,-7.5689524E-2,-8.52191E-2,4.2287435E-2,-7.499883E-2,-3.4228065E-3,-7.89854E-2,-6.254301E-2,-8.8202484E-2,-7.292317E-2,-8.646112E-2,-4.7318295E-2,1.3534074E-2,-6.703654E-2,-8.719088E-2,-7.746552E-2,-4.0954825E-2,-6.1731707E-2,-1.7340804E-2,-6.99295E-2,-9.1507085E-2,-5.744301E-2,-7.688897E-2,-8.324379E-2,-1.00664854E-1],"categories":[],"categories_nodes":[],"categories_segments":[],"categories_sizes":[],"default_left":[0,0,0,0,0,0,0,0,0,0,0,0,0,0,0,0,0,0,0,0,0,0,0,0,0,0,0,0,0,0,0,0,0,0,0,0,0,0,0,0,0,0,0,0,0,0,0,0,0,0,0,0,0,0,0,0,0,0,0,0,0,0,0,0,0,0,0,0,0,0,0,0,0,0,0,0,0,0,0,0,0,0,0,0,0,0,0,0,0,0,0,0,0,0,0],"id":3,"left_children":[1,3,5,7,9,11,13,15,17,19,-1,21,23,25,27,29,31,33,-1,35,37,39,41,43,45,47,49,51,53,55,57,59,-1,61,63,65,67,69,71,73,75,77,79,81,83,-1,85,87,-1,89,-1,91,93,-1,-1,-1,-1,-1,-1,-1,-1,-1,-1,-1,-1,-1,-1,-1,-1,-1,-1,-1,-1,-1,-1,-1,-1,-1,-1,-1,-1,-1,-1,-1,-1,-1,-1,-1,-1,-1,-1,-1,-1,-1,-1],"loss_changes":[2.8705742E4,2.3422604E4,2.0956074E3,2.9660283E4,1.1017402E3,1.7005801E3,3.3527148E2,3.7406957E4,1.0311367E3,6.246914E2,0E0,2.8991235E3,2.9211963E2,7.8293945E2,6.0992188E1,4.4812316E4,1.0888369E3,6.9653516E2,0E0,4.6310938E2,1.8558496E2,2.6486084E3,2.6861328E1,9.3192773E2,4.8918457E0,7.356532E2,2.363379E1,8.06709E1,1.1978027E2,6.753743E4,2.2378535E3,7.483711E2,0E0,1.0319404E3,8.535156E1,5.774221E2,8.064966E1,1.9490771E2,1.1402344E1,4.206808E3,4.4511475E1,2.9607056E1,1.7405273E1,5.4771655E2,6.087549E1,0E0,7.6590576E0,4.5229126E2,0E0,3.646289E1,0E0,8.682959E1,9.3186035E0,0E0,0E0,0E0,0E0,0E0,0E0,0E0,0E0,0E0,0E0,0E0,0E0,0E0,0E0,0E0,0E0,0E0,0E0,0E0,0E0,0E0,0E0,0E0,0E0,0E0,0E0,0E0,0E0,0E0,0E0,0E0,0E0,0E0,0E0,0E0,0E0,0E0,0E0,0E0,0E0,0E0,0E0],"parents":[2147483647,0,0,1,1,2,2,3,3,4,4,5,5,6,6,7,7,8,8,9,9,11,11,12,12,13,13,14,14,15,15,16,16,17,17,19,19,20,20,21,21,22,22,23,23,24,24,25,25,26,26,27,27,28,28,29,29,30,30,31,31,33,33,34,34,35,35,36,36,37,37,38,38,39,39,40,40,41,41,42,42,43,43,44,44,46,46,47,47,49,49,51,51,52,52],"right_children":[2,4,6,8,10,12,14,16,18,20,-1,22,24,26,28,30,32,34,-1,36,38,40,42,44,46,48,50,52,54,56,58,60,-1,62,64,66,68,70,72,74,76,78,80,82,84,-1,86,88,-1,90,-1,92,94,-1,-1,-1,-1,-1,-1,-1,-1,-1,-1,-1,-1,-1,-1,-1,-1,-1,-1,-1,-1,-1,-1,-1,-1,-1,-1,-1,-1,-1,-1,-1,-1,-1,-1,-1,-1,-1,-1,-1,-1,-1,-1],"split_conditions":[1E0,1E0,6E0,1E0,5E0,1E0,1E0,1E0,5E0,1E0,9.0208516E-2,1E0,1E0,1E0,1E0,1E0,5E0,1E0,8.886921E-2,1E0,2E0,1E0,1E0,1E0,7.700654E-3,1.00186E1,1E0,2E0,9.644158E0,1E0,1.00186E1,1E0,9.090878E-2,1E0,1E0,1E0,2E0,1E0,5.0438075E5,1E0,1E0,1E0,1E0,1E0,1E0,-8.426961E-2,1.802893E6,1E0,8.733536E-2,1E0,-8.4690236E-2,1E0,1.3390153E1,-8.710385E-2,8.6696155E-2,9.0966746E-2,-4.2274293E-2,-5.1372934E-2,1.6582994E-2,-4.2704668E-2,-6.911346E-2,-3.5160553E-2,-8.255484E-2,-6.64231E-2,-7.97712E-2,-1.6391227E-2,-7.385852E-2,-5.7070173E-2,-8.022958E-2,-5.7386827E-2,-8.0207996E-2,-7.5689524E-2,-8.52191E-2,4.2287435E-2,-7.499883E-2,-3.4228065E-3,-7.89854E-2,-6.254301E-2,-8.8202484E-2,-7.292317E-2,-8.646112E-2,-4.7318295E-2,1.3534074E-2,-6.703654E-2,-8.719088E-2,-7.746552E-2,-4.0954825E-2,-6.1731707E-2,-1.7340804E-2,-6.99295E-2,-9.1507085E-2,-5.744301E-2,-7.688897E-2,-8.324379E-2,-1.00664854E-1],"split_indices":[17,39,16,41,16,73,36,38,16,5,0,75,37,37,26,42,16,85,0,85,22,71,13,36,20,14,73,22,14,40,14,13,0,86,36,83,22,18,3,72,32,62,36,11,40,0,3,11,0,72,0,13,14,0,0,0,0,0,0,0,0,0,0,0,0,0,0,0,0,0,0,0,0,0,0,0,0,0,0,0,0,0,0,0,0,0,0,0,0,0,0,0,0,0,0],"split_type":[0,0,0,0,0,0,0,0,0,0,0,0,0,0,0,0,0,0,0,0,0,0,0,0,0,0,0,0,0,0,0,0,0,0,0,0,0,0,0,0,0,0,0,0,0,0,0,0,0,0,0,0,0,0,0,0,0,0,0,0,0,0,0,0,0,0,0,0,0,0,0,0,0,0,0,0,0,0,0,0,0,0,0,0,0,0,0,0,0,0,0,0,0,0,0],"sum_hessian":[1.2372404E5,1.0130696E5,2.2417076E4,9.057068E4,1.0736281E4,1.2388565E4,1.0028512E4,7.9631664E4,1.093901E4,1.0614108E4,1.2217343E2,7.0873774E3,5.3011875E3,5.0368345E3,4.9916772E3,6.8651445E4,1.0980223E4,1.0821092E4,1.1791862E2,4.1485225E3,6.465586E3,5.202443E3,1.8849346E3,4.0708704E3,1.2303173E3,2.5805203E3,2.456314E3,3.4787783E3,1.5128989E3,5.6594902E4,1.2056543E4,1.085561E4,1.2461277E2,5.9116846E3,4.909407E3,2.35671E3,1.7918123E3,4.469038E3,1.9965477E3,4.2471694E3,9.552734E2,7.978941E2,1.0870404E3,1.5083165E3,2.5625537E3,5.940037E2,6.3631354E2,2.4725378E3,1.0798228E2,1.2817098E3,1.1746041E3,2.3860566E3,1.0927217E3,1.5036718E3,9.22712E0,4.449988E4,1.2095021E4,1.069072E4,1.3658229E3,4.885534E3,5.9700757E3,4.350432E3,1.561252E3,2.425014E3,2.4843933E3,1.7776827E3,5.790273E2,1.2369474E3,5.548649E2,3.1170833E3,1.3519551E3,5.285544E2,1.4679933E3,3.2483726E3,9.9879694E2,1.9998276E1,9.352751E2,6.5299005E2,1.4490402E2,5.350023E2,5.5203815E2,8.618545E2,6.464621E2,2.0885876E3,4.7396597E2,6.179832E2,1.8330336E1,1.5653878E3,9.0715015E2,1.02217694E3,2.5953293E2,1.0342029E3,1.3518538E3,9.816447E2,1.1107694E2],"tree_param":{"num_deleted":"0","num_feature":"87","num_nodes":"95","size_leaf_vector":"1"}},{"base_weights":[9.2539506E-4,2.7549487E-1,-9.4337547E-1,8.1598413E-1,-3.3818352E-1,-6.35049E-1,-1.2272025E0,1.7230409E0,-8.1584114E-1,-1.4577973E-1,-1.4217371E0,8.931395E-2,-1.2903218E0,-1.1200485E0,-1.6385521E0,1.7171149E0,8.955018E-2,-6.5770054E-1,-1.5269414E0,3.020463E-1,-1.0057609E0,-1.2936108E0,-1.5611029E0,-1.1188016E0,-1.4828218E0,-7.148037E-1,-1.4625639E0,-1.5888659E0,-8.330262E-2,1.7131429E0,8.941027E-2,-2.4233197E-1,-1.2888278E0,-4.776304E-1,-1.539845E0,6.767103E-1,-1.4709886E0,-1.1813303E0,9.28167E-2,-1.0992368E0,-8.2571685E-2,-1.4920781E0,-1.6572176E0,-8.654212E-1,-1.6193807E0,-1.442359E0,-8.462682E-2,1.9286608E0,-1.4966456E0,-1.3639567E0,-1.6215161E0,-1.5189416E0,-8.41347E-2,8.54515E-2,8.9271106E-2,8.937649E-3,-7.997098E-2,-7.0549734E-2,9.663688E-2,-8.466906E-2,4.658237E-2,-7.51305E-2,-9.389202E-2,5.903063E-2,-7.466238E-2,-6.610404E-2,-7.789088E-2,-5.0411858E-2,-7.413945E-2,-2.1676037E-2,-8.1517324E-2,-7.5282596E-2,7.871221E-3,-8.359246E-2,-7.338088E-2,-2.0371925E-3,-7.945949E-2,-6.2302776E-2,-8.225345E-2,-6.4391255E-2,-7.790623E-2,9.4344236E-2,1.0200758E-1,-6.8674035E-2,-8.162778E-2,-6.262893E-2,-8.0131344E-2,-8.015109E-2,-8.5447036E-2,-7.745866E-2,-5.3626586E-2],"categories":[],"categories_nodes":[],"categories_segments":[],"categories_sizes":[],"default_left":[0,0,0,0,0,0,0,0,0,0,0,0,0,0,0,0,0,0,0,0,0,0,0,0,0,0,0,0,0,0,0,0,0,0,0,0,0,0,0,0,0,0,0,0,0,0,0,0,0,0,0,0,0,0,0,0,0,0,0,0,0,0,0,0,0,0,0,0,0,0,0,0,0,0,0,0,0,0,0,0,0,0,0,0,0,0,0,0,0,0,0],"id":4,"left_children":[1,3,5,7,9,11,13,15,17,19,21,-1,23,25,27,29,-1,31,33,35,37,39,41,43,45,47,49,51,-1,53,-1,55,57,59,61,63,65,67,-1,69,-1,71,73,75,77,79,-1,81,83,85,87,89,-1,-1,-1,-1,-1,-1,-1,-1,-1,-1,-1,-1,-1,-1,-1,-1,-1,-1,-1,-1,-1,-1,-1,-1,-1,-1,-1,-1,-1,-1,-1,-1,-1,-1,-1,-1,-1,-1,-1],"loss_changes":[3.184832E4,3.1565191E4,2.4207168E3,7.489754E4,9.290864E3,2.1048895E4,6.331758E2,1.0015625E1,2.0319775E3,1.4575925E4,1.1797754E2,0E0,3.4305664E2,1.5858174E3,1.4174805E0,5.3828125E0,0E0,3.877192E3,4.378711E1,1.653381E4,6.514506E3,2.42104E2,1.8849121E1,6.993823E2,3.9276367E1,1.0830043E4,9.4884766E1,4.540039E0,0E0,5.390625E0,0E0,5.0985083E3,2.3132021E3,7.25004E1,3.8053223E1,2.2468676E4,5.4078125E1,6.3570703E2,0E0,8.03854E2,0E0,4.2345215E1,1.248291E0,2.1907256E3,1.5746094E1,7.183887E1,0E0,1.7216797E0,6.544238E1,9.9788574E1,1.0874023E0,6.8406982E0,0E0,0E0,0E0,0E0,0E0,0E0,0E0,0E0,0E0,0E0,0E0,0E0,0E0,0E0,0E0,0E0,0E0,0E0,0E0,0E0,0E0,0E0,0E0,0E0,0E0,0E0,0E0,0E0,0E0,0E0,0E0,0E0,0E0,0E0,0E0,0E0,0E0,0E0,0E0],"parents":[2147483647,0,0,1,1,2,2,3,3,4,4,5,5,6,6,7,7,8,8,9,9,10,10,12,12,13,13,14,14,15,15,17,17,18,18,19,19,20,20,21,21,22,22,23,23,24,24,25,25,26,26,27,27,29,29,31,31,32,32,33,33,34,34,35,35,36,36,37,37,39,39,41,41,42,42,43,43,44,44,45,45,47,47,48,48,49,49,50,50,51,51],"right_children":[2,4,6,8,10,12,14,16,18,20,22,-1,24,26,28,30,-1,32,34,36,38,40,42,44,46,48,50,52,-1,54,-1,56,58,60,62,64,66,68,-1,70,-1,72,74,76,78,80,-1,82,84,86,88,90,-1,-1,-1,-1,-1,-1,-1,-1,-1,-1,-1,-1,-1,-1,-1,-1,-1,-1,-1,-1,-1,-1,-1,-1,-1,-1,-1,-1,-1,-1,-1,-1,-1,-1,-1,-1,-1,-1,-1],"split_conditions":[1E0,1E0,1E0,1E0,1E0,1E0,1E0,1E0,1E0,1E0,1E0,8.931395E-2,1E0,1E0,1E0,1E0,8.955018E-2,1E0,2.03766E4,1E0,9.644158E0,1E0,1.1330829E6,1E0,1E0,1E0,1E0,5.859E-1,-8.330262E-2,1E0,8.941027E-2,1E0,9.644158E0,1E0,1E0,1E0,1E0,1E0,9.28167E-2,1E0,-8.2571685E-2,1.1265621E6,1.9364186E6,1E0,1E0,1E0,-8.462682E-2,1E0,1E0,2E0,1E0,1.8947914E6,-8.41347E-2,8.54515E-2,8.9271106E-2,8.937649E-3,-7.997098E-2,-7.0549734E-2,9.663688E-2,-8.466906E-2,4.658237E-2,-7.51305E-2,-9.389202E-2,5.903063E-2,-7.466238E-2,-6.610404E-2,-7.789088E-2,-5.0411858E-2,-7.413945E-2,-2.1676037E-2,-8.1517324E-2,-7.5282596E-2,7.871221E-3,-8.359246E-2,-7.338088E-2,-2.0371925E-3,-7.945949E-2,-6.2302776E-2,-8.225345E-2,-6.4391255E-2,-7.790623E-2,9.4344236E-2,1.0200758E-1,-6.8674035E-2,-8.162778E-2,-6.262893E-2,-8.0131344E-2,-8.015109E-2,-8.5447036E-2,-7.745866E-2,-5.3626586E-2],"split_indices":[10,36,11,37,27,24,37,26,27,26,73,0,73,36,5,40,0,26,3,28,14,75,3,75,83,35,6,9,0,42,0,28,14,79,74,31,5,6,0,76,0,3,3,76,54,85,0,73,85,22,84,3,0,0,0,0,0,0,0,0,0,0,0,0,0,0,0,0,0,0,0,0,0,0,0,0,0,0,0,0,0,0,0,0,0,0,0,0,0,0,0],"split_type":[0,0,0,0,0,0,0,0,0,0,0,0,0,0,0,0,0,0,0,0,0,0,0,0,0,0,0,0,0,0,0,0,0,0,0,0,0,0,0,0,0,0,0,0,0,0,0,0,0,0,0,0,0,0,0,0,0,0,0,0,0,0,0,0,0,0,0,0,0,0,0,0,0,0,0,0,0,0,0,0,0,0,0,0,0,0,0,0,0,0,0],"sum_hessian":[1.228335E5,9.516389E4,2.7669605E4,5.0599082E4,4.4564812E4,1.3263963E4,1.4405643E4,3.2521701E4,1.8077379E4,3.784577E4,6.719041E3,2.8246707E3,1.0439292E4,1.1431521E4,2.9741206E3,2.9937559E4,2.5841428E3,1.4790145E4,3.287234E3,2.4886855E4,1.2958916E4,3.506038E3,3.2130027E3,5.524075E3,4.915217E3,5.237681E3,6.193841E3,1.0805725E3,1.8935482E3,2.8377145E4,1.5604156E3,8.920566E3,5.8695776E3,4.0394672E1,3.246839E3,2.0545877E4,4.3409775E3,1.2210477E4,7.4843994E2,2.2745469E3,1.2314913E3,1.8796552E3,1.3333477E3,3.6694316E3,1.8546437E3,4.1268496E3,7.883669E2,1.19519E3,4.0424912E3,3.8284292E3,2.3654116E3,6.2900336E2,4.5156918E2,2.6872596E4,1.5045479E3,6.8087705E3,2.1117961E3,5.6556675E3,2.1390994E2,2.1578133E1,1.8816542E1,2.9295522E3,3.172868E2,1.6674275E4,3.8716025E3,1.6048882E3,2.7360896E3,7.7594556E3,4.4510205E3,1.01017065E3,1.2643762E3,1.8644E3,1.5255037E1,1.2305663E3,1.02781296E2,1.7156451E3,1.9537865E3,1.2258806E2,1.7320557E3,1.7726671E3,2.3541826E3,8.824547E2,3.127352E2,2.1265054E3,1.9159858E3,2.6145618E3,1.2138674E3,1.9683517E3,3.9705984E2,5.8679456E2,4.220881E1],"tree_param":{"num_deleted":"0","num_feature":"87","num_nodes":"91","size_leaf_vector":"1"}},{"base_weights":[-4.3201787E-4,2.6345953E-1,-9.066124E-1,7.8322047E-1,-3.260951E-1,-5.8995897E-1,-1.1747143E0,1.6635741E0,-7.8073585E-1,-1.4039886E-1,-1.3685168E0,-2.7759638E-1,-1.0318942E0,-1.0606353E0,-1.5011264E0,1.65826E0,8.618854E-2,-6.2722075E-1,-1.4727157E0,2.8837335E-1,-9.600332E-1,-1.2192951E0,-1.4732163E0,2.3710696E-2,-1.3875369E0,-7.4347633E-1,-1.2866517E0,-8.175623E-1,-1.275761E0,-1.4476887E0,-8.067963E-2,1.6547625E0,8.603387E-2,-2.2846608E-1,-1.2359083E0,-1.4356914E0,-9.0221606E-2,6.048965E-1,-1.4421039E0,-1.1295612E0,8.8995695E-2,-1.016441E0,-1.4424132E0,-1.4439228E0,-1.7262255E0,5.66744E-1,-1.3465819E0,-1.2411059E0,-1.6094867E0,8.778536E-2,-1.2828699E0,-1.1452858E0,-1.537879E0,8.301018E-2,-1.336977E0,-1.2011608E0,-8.061184E-2,-1.3400784E0,-1.5355765E0,8.255499E-2,8.59097E-2,8.301857E-3,-8.106348E-2,-6.777584E-2,9.250857E-2,-2.102199E-2,-7.244181E-2,4.4957764E-2,-6.3776016E-2,-6.659775E-2,-7.6030366E-2,-4.808059E-2,-7.1062796E-2,-3.9294787E-2,-7.928088E-2,-6.6573754E-2,-7.509247E-2,-6.813749E-2,-7.68198E-2,-7.211696E-2,-8.742998E-2,8.886387E-2,-6.6040464E-2,-7.471251E-2,-5.399933E-2,8.574038E-2,-7.303071E-2,-3.0884093E-2,-8.2904726E-2,-6.0099043E-2,-8.106771E-2,-5.1156778E-2,-8.112707E-2,-7.9374686E-2,-6.9812015E-2,-5.970892E-2,-7.470477E-2,-5.4920442E-2,-7.784083E-2,-6.02834E-2,-7.876211E-2,-5.6604594E-2,-7.767986E-2],"categories":[],"categories_nodes":[],"categories_segments":[],"categories_sizes":[],"default_left":[0,0,0,0,0,0,0,0,0,0,0,0,0,0,0,0,0,0,0,0,0,0,0,0,0,0,0,0,0,0,0,0,0,0,0,0,0,0,0,0,0,0,0,0,0,0,0,0,0,0,0,0,0,0,0,0,0,0,0,0,0,0,0,0,0,0,0,0,0,0,0,0,0,0,0,0,0,0,0,0,0,0,0,0,0,0,0,0,0,0,0,0,0,0,0,0,0,0,0,0,0,0,0],"id":5,"left_children":[1,3,5,7,9,11,13,15,17,19,21,23,25,27,29,31,-1,33,35,37,39,41,43,45,47,49,51,53,55,57,-1,59,-1,61,63,65,-1,67,69,71,-1,73,75,77,79,81,83,85,87,-1,89,91,93,-1,95,97,-1,99,101,-1,-1,-1,-1,-1,-1,-1,-1,-1,-1,-1,-1,-1,-1,-1,-1,-1,-1,-1,-1,-1,-1,-1,-1,-1,-1,-1,-1,-1,-1,-1,-1,-1,-1,-1,-1,-1,-1,-1,-1,-1,-1,-1,-1],"loss_changes":[2.9090086E4,2.8869451E4,2.3284824E3,6.893955E4,8.544747E3,1.7364365E3,5.515918E2,7.390625E0,1.914833E3,1.3168448E4,1.024834E2,2.4656082E3,3.8182178E2,5.747822E2,2.077246E1,3.59375E0,0E0,3.5825757E3,3.7615723E1,1.3475842E4,5.979802E3,1.2335791E2,2.6542969E1,4.3161445E3,4.9159668E1,3.2991858E3,9.6430664E1,6.659678E3,1.4465332E2,2.2685059E1,0E0,3.6484375E0,0E0,4.901486E3,2.1590986E3,3.8757812E1,0E0,1.1509221E4,3.0870605E1,5.923955E2,0E0,1.8875317E2,6.644287E0,2.4307617E1,2.746582E-2,9.494249E3,6.319507E1,6.20687E2,2.8977295E1,0E0,5.314331E1,1.0170996E2,4.7592773E0,0E0,9.417578E1,1.7312207E2,0E0,3.552539E1,8.6623535E0,0E0,0E0,0E0,0E0,0E0,0E0,0E0,0E0,0E0,0E0,0E0,0E0,0E0,0E0,0E0,0E0,0E0,0E0,0E0,0E0,0E0,0E0,0E0,0E0,0E0,0E0,0E0,0E0,0E0,0E0,0E0,0E0,0E0,0E0,0E0,0E0,0E0,0E0,0E0,0E0,0E0,0E0,0E0,0E0],"parents":[2147483647,0,0,1,1,2,2,3,3,4,4,5,5,6,6,7,7,8,8,9,9,10,10,11,11,12,12,13,13,14,14,15,15,17,17,18,18,19,19,20,20,21,21,22,22,23,23,24,24,25,25,26,26,27,27,28,28,29,29,31,31,33,33,34,34,35,35,37,37,38,38,39,39,41,41,42,42,43,43,44,44,45,45,46,46,47,47,48,48,50,50,51,51,52,52,54,54,55,55,57,57,58,58],"right_children":[2,4,6,8,10,12,14,16,18,20,22,24,26,28,30,32,-1,34,36,38,40,42,44,46,48,50,52,54,56,58,-1,60,-1,62,64,66,-1,68,70,72,-1,74,76,78,80,82,84,86,88,-1,90,92,94,-1,96,98,-1,100,102,-1,-1,-1,-1,-1,-1,-1,-1,-1,-1,-1,-1,-1,-1,-1,-1,-1,-1,-1,-1,-1,-1,-1,-1,-1,-1,-1,-1,-1,-1,-1,-1,-1,-1,-1,-1,-1,-1,-1,-1,-1,-1,-1,-1],"split_conditions":[1E0,1E0,1E0,1E0,1E0,1E0,1E0,1E0,1E0,1E0,1E0,1E0,1E0,1E0,2E0,1E0,8.618854E-2,1E0,1E0,1E0,9.644158E0,1E0,1E0,1E0,1E0,1E0,1E0,1E0,1E0,2E0,-8.067963E-2,1E0,8.603387E-2,1E0,9.644158E0,2.03766E4,-9.0221606E-2,1.3390153E1,1E0,1E0,8.8995695E-2,1E0,1E0,1.0259463E6,7.2637253E0,1E0,1.3215762E6,1E0,8.359201E4,8.778536E-2,1E0,1E0,1.4802302E6,8.301018E-2,1E0,1E0,-8.061184E-2,1E0,3.406809E-4,8.255499E-2,8.59097E-2,8.301857E-3,-8.106348E-2,-6.777584E-2,9.250857E-2,-2.102199E-2,-7.244181E-2,4.4957764E-2,-6.3776016E-2,-6.659775E-2,-7.6030366E-2,-4.808059E-2,-7.1062796E-2,-3.9294787E-2,-7.928088E-2,-6.6573754E-2,-7.509247E-2,-6.813749E-2,-7.68198E-2,-7.211696E-2,-8.742998E-2,8.886387E-2,-6.6040464E-2,-7.471251E-2,-5.399933E-2,8.574038E-2,-7.303071E-2,-3.0884093E-2,-8.2904726E-2,-6.0099043E-2,-8.106771E-2,-5.1156778E-2,-8.112707E-2,-7.9374686E-2,-6.9812015E-2,-5.970892E-2,-7.470477E-2,-5.4920442E-2,-7.784083E-2,-6.02834E-2,-7.876211E-2,-5.6604594E-2,-7.767986E-2],"split_indices":[10,36,13,37,27,85,17,26,27,26,13,83,11,11,22,40,0,26,74,31,14,85,74,84,24,24,6,24,42,23,0,42,0,31,14,3,0,14,13,6,0,84,22,3,14,86,3,11,3,0,60,37,3,0,85,40,0,82,20,0,0,0,0,0,0,0,0,0,0,0,0,0,0,0,0,0,0,0,0,0,0,0,0,0,0,0,0,0,0,0,0,0,0,0,0,0,0,0,0,0,0,0,0],"split_type":[0,0,0,0,0,0,0,0,0,0,0,0,0,0,0,0,0,0,0,0,0,0,0,0,0,0,0,0,0,0,0,0,0,0,0,0,0,0,0,0,0,0,0,0,0,0,0,0,0,0,0,0,0,0,0,0,0,0,0,0,0,0,0,0,0,0,0,0,0,0,0,0,0,0,0,0,0,0,0,0,0,0,0,0,0,0,0,0,0,0,0,0,0,0,0,0,0,0,0,0,0,0,0],"sum_hessian":[1.2164598E5,9.4211164E4,2.743481E4,5.00691E4,4.4142062E4,1.2579934E4,1.4854876E4,3.203595E4,1.8033154E4,3.746857E4,6.67349E3,7.3714053E3,5.2085283E3,1.1010887E4,3.843989E3,2.9463498E4,2.5724517E3,1.4760465E4,3.2726887E3,2.4600207E4,1.2868365E4,2.7568982E3,3.9165918E3,5.79835E3,1.5730552E3,2.4447173E3,2.7638113E3,5.1718984E3,5.8389883E3,2.615242E3,1.228747E3,2.7926158E4,1.5373386E3,8.918971E3,5.841494E3,2.948879E3,3.2380972E2,2.079688E4,3.803326E3,1.211911E4,7.492545E2,1.4469331E3,1.3099651E3,3.5161936E3,4.0039838E2,4.153103E3,1.6452472E3,9.517391E2,6.213161E2,4.3357413E2,2.0111431E3,1.7721685E3,9.916428E2,8.9591504E2,4.2759834E3,4.783096E3,1.0558926E3,1.1830085E3,1.4322334E3,2.6427203E4,1.4989552E3,6.9510176E3,1.9679531E3,5.62408E3,2.1741426E2,3.8113686E1,2.9107651E3,1.7983273E4,2.8136072E3,1.5901478E3,2.2131782E3,7.693635E3,4.4254756E3,1.031503E3,4.154301E2,4.651538E2,8.448113E2,1.8808867E3,1.6353068E3,3.4033962E1,3.663644E2,2.5303728E3,1.6227305E3,1.05582E3,5.8942725E2,6.532023E1,8.864189E2,2.9668179E1,5.9164795E2,1.6269054E3,3.8423767E2,1.4135294E3,3.586391E2,7.268323E2,2.6481052E2,2.2445764E3,2.0314069E3,3.7141384E3,1.0689576E3,7.566588E2,4.263498E2,6.3960884E1,1.3682725E3],"tree_param":{"num_deleted":"0","num_feature":"87","num_nodes":"103","size_leaf_vector":"1"}},{"base_weights":[2.3777143E-3,2.5564218E-1,-8.6823565E-1,7.6009333E-1,-3.097546E-1,-5.6174326E-1,-1.1293595E0,1.6106722E0,-7.4319E-1,-1.3262413E-1,-1.3209702E0,-2.6093373E-1,-9.931484E-1,-9.475732E-1,-1.3370473E0,1.6059201E0,8.320309E-2,-4.540365E-1,-1.1192633E0,2.7709016E-1,-9.1824484E-1,-1.1946611E0,-1.4609338E0,2.6654456E-2,-1.3215597E0,-8.0461985E-1,-1.3428258E0,-6.7734736E-1,-1.5048593E0,-1.2412506E0,-1.473507E0,1.6030267E0,8.294825E-2,-8.022826E-2,-1.4313015E0,-8.416892E-1,-1.2953438E0,6.5033376E-1,-1.4516306E0,-7.640287E-1,-1.402422E0,-1.0041806E0,-7.737681E-2,-1.1839039E0,-1.4808917E0,5.488579E-1,-1.2814765E0,-1.1745964E0,-1.5491252E0,-6.6927457E-1,-1.5122501E0,-1.1820402E0,-1.4744519E0,1.1312716E-1,-1.4388785E0,-1.4388912E0,-7.760956E-2,8.05045E-2,-1.4117453E0,-1.4201077E0,-1.5423932E0,8.002792E-2,8.331199E-2,3.5343237E-2,-6.53322E-2,-6.927591E-2,-8.077826E-2,-2.94101E-2,-6.6004075E-2,-5.7822574E-2,-7.254189E-2,5.5789877E-2,-6.952279E-2,-6.88362E-2,-8.048876E-2,-3.133337E-2,-7.512808E-2,-6.2705256E-2,-7.836305E-2,-1.7522361E-2,-7.659384E-2,-6.942609E-2,-3.5399824E-2,-7.106712E-2,-7.8187056E-2,8.5631326E-2,-6.3535236E-2,-7.161476E-2,-5.0984558E-2,8.298365E-2,-6.9397174E-2,-3.1081388E-2,-7.990234E-2,-2.4019033E-2,-7.287062E-2,-6.958835E-2,-7.883909E-2,7.9163544E-2,-6.91744E-2,-6.4781345E-2,-7.741772E-2,9.088678E-2,-7.737912E-2,-6.52408E-2,-7.7392146E-2,7.705363E-2,-7.573364E-2,-6.533929E-2,-7.356308E-2,-6.676758E-2,-7.5522706E-2,-7.828215E-2,-7.28129E-2],"categories":[],"categories_nodes":[],"categories_segments":[],"categories_sizes":[],"default_left":[0,0,0,0,0,0,0,0,0,0,0,0,0,0,0,0,0,0,0,0,0,0,0,0,0,0,0,0,0,0,0,0,0,0,0,0,0,0,0,0,0,0,0,0,0,0,0,0,0,0,0,0,0,0,0,0,0,0,0,0,0,0,0,0,0,0,0,0,0,0,0,0,0,0,0,0,0,0,0,0,0,0,0,0,0,0,0,0,0,0,0,0,0,0,0,0,0,0,0,0,0,0,0,0,0,0,0,0,0,0,0,0,0],"id":6,"left_children":[1,3,5,7,9,11,13,15,17,19,21,23,25,27,29,31,-1,33,35,37,39,41,43,45,47,49,51,53,55,57,59,61,-1,63,65,67,69,71,73,75,77,79,-1,81,83,85,87,89,91,93,95,97,99,101,103,105,-1,-1,107,109,111,-1,-1,-1,-1,-1,-1,-1,-1,-1,-1,-1,-1,-1,-1,-1,-1,-1,-1,-1,-1,-1,-1,-1,-1,-1,-1,-1,-1,-1,-1,-1,-1,-1,-1,-1,-1,-1,-1,-1,-1,-1,-1,-1,-1,-1,-1,-1,-1,-1,-1,-1,-1],"loss_changes":[2.6488791E4,2.6542697E4,2.1659883E3,6.288779E4,7.859596E3,1.6161665E3,5.505918E2,5.296875E0,1.9321436E3,1.2019595E4,1.1388379E2,2.238959E3,3.3624316E2,1.1732881E3,8.732422E1,1.765625E0,0E0,3.6709292E3,3.7645117E2,1.58367705E4,9.54626E2,2.2990186E2,1.5375488E1,3.9459487E3,5.054492E1,3.17625E2,3.6158447E1,3.1624895E3,5.715332E0,1.9533042E3,8.136719E0,1.6171875E0,0E0,7.0185283E3,2.1217285E1,3.6314917E2,1.00356445E2,1.9175957E4,4.9413086E1,9.840552E2,7.359766E1,7.7191406E2,0E0,1.9776428E1,1.2015625E1,8.744183E3,6.360791E1,5.8007605E2,2.6742065E1,4.1534167E2,1.9526367E0,4.540775E2,1.095459E1,7.3024297E3,3.7066895E1,2.455813E2,0E0,0E0,2.1737305E1,1.0190674E1,1.5185547E-1,0E0,0E0,0E0,0E0,0E0,0E0,0E0,0E0,0E0,0E0,0E0,0E0,0E0,0E0,0E0,0E0,0E0,0E0,0E0,0E0,0E0,0E0,0E0,0E0,0E0,0E0,0E0,0E0,0E0,0E0,0E0,0E0,0E0,0E0,0E0,0E0,0E0,0E0,0E0,0E0,0E0,0E0,0E0,0E0,0E0,0E0,0E0,0E0,0E0,0E0,0E0,0E0],"parents":[2147483647,0,0,1,1,2,2,3,3,4,4,5,5,6,6,7,7,8,8,9,9,10,10,11,11,12,12,13,13,14,14,15,15,17,17,18,18,19,19,20,20,21,21,22,22,23,23,24,24,25,25,26,26,27,27,28,28,29,29,30,30,31,31,33,33,34,34,35,35,36,36,37,37,38,38,39,39,40,40,41,41,43,43,44,44,45,45,46,46,47,47,48,48,49,49,50,50,51,51,52,52,53,53,54,54,55,55,58,58,59,59,60,60],"right_children":[2,4,6,8,10,12,14,16,18,20,22,24,26,28,30,32,-1,34,36,38,40,42,44,46,48,50,52,54,56,58,60,62,-1,64,66,68,70,72,74,76,78,80,-1,82,84,86,88,90,92,94,96,98,100,102,104,106,-1,-1,108,110,112,-1,-1,-1,-1,-1,-1,-1,-1,-1,-1,-1,-1,-1,-1,-1,-1,-1,-1,-1,-1,-1,-1,-1,-1,-1,-1,-1,-1,-1,-1,-1,-1,-1,-1,-1,-1,-1,-1,-1,-1,-1,-1,-1,-1,-1,-1,-1,-1,-1,-1,-1,-1],"split_conditions":[1E0,1E0,1E0,1E0,1E0,1E0,1E0,1E0,1E0,1E0,1E0,1E0,1E0,1E0,1E0,1E0,8.320309E-2,1E0,1E0,1E0,1E0,1E0,1E0,1E0,1E0,1E0,1E0,1E0,1E0,1E0,1E0,1E0,8.294825E-2,1E0,1E0,1E0,1E0,1E0,1E0,1E0,6E0,1E0,-7.737681E-2,7.265E-1,1.1330829E6,1E0,1.3215762E6,1E0,8.359201E4,1E0,1.8E1,1E0,1.985E3,1E0,1E0,1E0,-7.760956E-2,8.05045E-2,1E0,1E0,6.11E2,8.002792E-2,8.331199E-2,3.5343237E-2,-6.53322E-2,-6.927591E-2,-8.077826E-2,-2.94101E-2,-6.6004075E-2,-5.7822574E-2,-7.254189E-2,5.5789877E-2,-6.952279E-2,-6.88362E-2,-8.048876E-2,-3.133337E-2,-7.512808E-2,-6.2705256E-2,-7.836305E-2,-1.7522361E-2,-7.659384E-2,-6.942609E-2,-3.5399824E-2,-7.106712E-2,-7.8187056E-2,8.5631326E-2,-6.3535236E-2,-7.161476E-2,-5.0984558E-2,8.298365E-2,-6.9397174E-2,-3.1081388E-2,-7.990234E-2,-2.4019033E-2,-7.287062E-2,-6.958835E-2,-7.883909E-2,7.9163544E-2,-6.91744E-2,-6.4781345E-2,-7.741772E-2,9.088678E-2,-7.737912E-2,-6.52408E-2,-7.7392146E-2,7.705363E-2,-7.573364E-2,-6.533929E-2,-7.356308E-2,-6.676758E-2,-7.5522706E-2,-7.828215E-2,-7.28129E-2],"split_indices":[10,36,13,37,27,85,73,26,73,26,73,83,6,75,24,42,0,76,5,28,17,75,54,84,24,39,11,76,11,11,21,38,0,75,58,6,85,31,18,39,16,76,0,9,3,86,3,11,3,42,7,24,19,74,11,24,0,0,5,85,0,0,0,0,0,0,0,0,0,0,0,0,0,0,0,0,0,0,0,0,0,0,0,0,0,0,0,0,0,0,0,0,0,0,0,0,0,0,0,0,0,0,0,0,0,0,0,0,0,0,0,0,0],"split_type":[0,0,0,0,0,0,0,0,0,0,0,0,0,0,0,0,0,0,0,0,0,0,0,0,0,0,0,0,0,0,0,0,0,0,0,0,0,0,0,0,0,0,0,0,0,0,0,0,0,0,0,0,0,0,0,0,0,0,0,0,0,0,0,0,0,0,0,0,0,0,0,0,0,0,0,0,0,0,0,0,0,0,0,0,0,0,0,0,0,0,0,0,0,0,0,0,0,0,0,0,0,0,0,0,0,0,0,0,0,0,0,0,0],"sum_hessian":[1.2013106E5,9.306023E4,2.7070836E4,4.9180594E4,4.387963E4,1.2455007E4,1.461583E4,3.1408916E4,1.777168E4,3.734006E4,6.539573E3,7.3391675E3,5.115839E3,7.796886E3,6.818944E3,2.8870268E4,2.5386487E3,1.0048129E4,7.723551E3,2.4541764E4,1.2798293E4,3.442474E3,3.0970989E3,5.774413E3,1.5647543E3,3.325953E3,1.7898862E3,5.252288E3,2.5445981E3,4.0123274E3,2.8066165E3,2.7406617E4,1.4636506E3,7.268845E3,2.7792837E3,3.0000457E3,4.723505E3,2.0184422E4,4.3573423E3,9.708576E3,3.089717E3,2.2381667E3,1.2043075E3,2.1218213E2,2.8849167E3,4.1273594E3,1.6470538E3,9.544963E2,6.1025806E2,2.7935825E3,5.3237024E2,8.101914E2,9.796948E2,2.577587E3,2.6747012E3,1.0761426E3,1.4684556E3,2.2590263E2,3.7864248E3,1.5932065E3,1.21341E3,2.640199E4,1.00462585E3,4.4276665E3,2.8411785E3,2.2329822E3,5.4630145E2,1.9624341E3,1.0376117E3,2.4993997E3,2.2241055E3,1.6436121E4,3.7483008E3,2.9634019E3,1.3939403E3,8.1875947E3,1.5209811E3,1.6308962E3,1.4588208E3,1.00044055E3,1.2377262E3,1.4704295E2,6.513918E1,1.6890413E3,1.1958755E3,2.5173523E3,1.610007E3,1.0421715E3,6.048823E2,6.6344536E1,8.8815173E2,3.1262514E1,5.7899554E2,2.2547852E3,5.387975E2,1.9355795E2,3.3881226E2,5.4547565E1,7.5564386E2,2.919009E2,6.877939E2,1.2719352E3,1.3056517E3,1.2050552E3,1.469646E3,2.6208492E1,1.0499341E3,1.3784418E3,2.407983E3,8.3017676E2,7.630297E2,9.419743E2,2.7143576E2],"tree_param":{"num_deleted":"0","num_feature":"87","num_nodes":"113","size_leaf_vector":"1"}},{"base_weights":[8.102658E-4,2.4568059E-1,-8.3741087E-1,7.329918E-1,-2.9768157E-1,-5.379343E-1,-1.093533E0,8.734273E-1,-1.0115708E0,-9.35179E-2,-1.1176794E0,-3.513823E-1,-1.2070557E0,-9.8746544E-1,-1.3977307E0,1.1368024E0,-3.076616E-1,-8.304853E-1,-1.3320241E0,8.402661E-2,-1.2393935E0,-8.850095E-1,-1.2973797E0,-1.6108167E-1,-1.149488E0,-1.0972333E0,-1.4553484E0,-7.9079205E-1,-1.2199813E0,-1.3401031E0,-7.585411E-2,1.293901E0,-1.2578489E0,-5.3703254E-1,8.137613E-2,-6.4889526E-1,-1.2841867E0,-1.2781479E0,-8.9686334E-2,4.700609E-1,-7.320319E-1,-1.0926058E0,-1.4044738E0,-6.882249E-1,-1.2935951E0,-1.2438635E0,-1.9710374E0,3.2797348E-1,-8.2999337E-1,-1.0004681E0,-1.4174936E0,-1.0022248E0,-1.5441929E0,-7.9264395E-2,-1.3624451E0,-5.504978E-1,-1.4678823E0,-9.971739E-1,-1.3529905E0,-1.2932018E0,-7.660432E-2,6.750747E-2,-7.857283E-2,-5.423023E-2,-7.299607E-2,-1.613923E-2,-5.7513375E-2,-2.5360806E-2,-7.273469E-2,-7.658049E-2,-5.09762E-2,-5.8503162E-2,-7.1316466E-2,3.9794028E-2,-6.692238E-2,-4.609221E-2,8.656549E-2,-4.5612764E-2,-7.5891174E-2,-6.8560414E-2,-8.4847234E-2,-2.4208983E-2,-7.9410516E-2,-6.809753E-2,8.810698E-2,-6.538681E-2,3.4052294E-3,-8.93661E-2,-1.07900456E-1,8.286677E-2,-2.3335597E-2,-3.2350764E-2,-6.435808E-2,-3.2849547E-2,-6.09087E-2,-6.328957E-2,-7.4220695E-2,-4.2202167E-2,-6.8576135E-2,-7.931785E-2,-5.9102643E-2,-1.0470669E-2,-6.989965E-2,-1.5889287E-3,-7.211998E-2,-6.984587E-2,-7.603903E-2,-4.0072273E-2,-6.525063E-2,-6.218816E-2,-7.186988E-2,-6.1189033E-2,-7.545477E-2],"categories":[],"categories_nodes":[],"categories_segments":[],"categories_sizes":[],"default_left":[0,0,0,0,0,0,0,0,0,0,0,0,0,0,0,0,0,0,0,0,0,0,0,0,0,0,0,0,0,0,0,0,0,0,0,0,0,0,0,0,0,0,0,0,0,0,0,0,0,0,0,0,0,0,0,0,0,0,0,0,0,0,0,0,0,0,0,0,0,0,0,0,0,0,0,0,0,0,0,0,0,0,0,0,0,0,0,0,0,0,0,0,0,0,0,0,0,0,0,0,0,0,0,0,0,0,0,0,0,0,0,0,0],"id":7,"left_children":[1,3,5,7,9,11,13,15,17,19,21,23,25,27,29,31,33,35,37,39,41,43,45,47,49,51,53,55,57,59,-1,61,63,65,-1,67,69,71,-1,73,75,77,79,81,83,85,87,89,91,93,95,97,99,-1,101,103,105,107,109,111,-1,-1,-1,-1,-1,-1,-1,-1,-1,-1,-1,-1,-1,-1,-1,-1,-1,-1,-1,-1,-1,-1,-1,-1,-1,-1,-1,-1,-1,-1,-1,-1,-1,-1,-1,-1,-1,-1,-1,-1,-1,-1,-1,-1,-1,-1,-1,-1,-1,-1,-1,-1,-1],"loss_changes":[2.4311809E4,2.4272566E4,2.0534277E3,1.1840846E4,7.2559346E3,1.5407563E3,4.643164E2,1.3913488E4,2.0785132E2,7.0602095E3,3.6009766E2,1.4664077E3,7.179175E1,4.8858105E2,2.3615723E1,1.3759793E4,3.6211233E3,1.8893872E2,3.0006348E1,9.466353E3,1.11279785E2,3.0208862E2,1.7321973E2,2.5513591E3,7.282593E1,7.7865234E1,7.7668457E0,9.4325684E2,1.4397559E2,2.0740723E1,0E0,5.5336484E3,7.725635E1,9.5774854E2,0E0,1.8729468E2,4.148584E1,1.7010376E1,0E0,1.2021322E4,4.5136484E3,1.8794946E2,1.8958496E1,4.6667224E2,2.580204E2,3.7859766E2,8.402344E0,4.760466E3,2.746997E2,8.878967E1,4.840576E0,8.9101074E1,3.102356E0,0E0,1.9651611E1,1.9820234E3,3.5788574E0,1.0963208E2,2.6496582E1,2.864331E1,0E0,0E0,0E0,0E0,0E0,0E0,0E0,0E0,0E0,0E0,0E0,0E0,0E0,0E0,0E0,0E0,0E0,0E0,0E0,0E0,0E0,0E0,0E0,0E0,0E0,0E0,0E0,0E0,0E0,0E0,0E0,0E0,0E0,0E0,0E0,0E0,0E0,0E0,0E0,0E0,0E0,0E0,0E0,0E0,0E0,0E0,0E0,0E0,0E0,0E0,0E0,0E0,0E0],"parents":[2147483647,0,0,1,1,2,2,3,3,4,4,5,5,6,6,7,7,8,8,9,9,10,10,11,11,12,12,13,13,14,14,15,15,16,16,17,17,18,18,19,19,20,20,21,21,22,22,23,23,24,24,25,25,26,26,27,27,28,28,29,29,31,31,32,32,33,33,35,35,36,36,37,37,39,39,40,40,41,41,42,42,43,43,44,44,45,45,46,46,47,47,48,48,49,49,50,50,51,51,52,52,54,54,55,55,56,56,57,57,58,58,59,59],"right_children":[2,4,6,8,10,12,14,16,18,20,22,24,26,28,30,32,34,36,38,40,42,44,46,48,50,52,54,56,58,60,-1,62,64,66,-1,68,70,72,-1,74,76,78,80,82,84,86,88,90,92,94,96,98,100,-1,102,104,106,108,110,112,-1,-1,-1,-1,-1,-1,-1,-1,-1,-1,-1,-1,-1,-1,-1,-1,-1,-1,-1,-1,-1,-1,-1,-1,-1,-1,-1,-1,-1,-1,-1,-1,-1,-1,-1,-1,-1,-1,-1,-1,-1,-1,-1,-1,-1,-1,-1,-1,-1,-1,-1,-1,-1],"split_conditions":[1E0,1E0,1E0,1E0,1E0,1E0,1E0,1E0,1E0,1E0,1E0,1E0,1E0,1E0,2E0,1E0,9.644158E0,1E0,1E0,1E0,1E0,1E0,1.3966082E1,1E0,1E0,1E0,8.5051256E5,1E0,1E0,1E0,-7.585411E-2,1E0,1E0,2E0,8.137613E-2,1E0,1.0965084E6,3E0,-8.9686334E-2,1E0,9.644158E0,1E0,1E0,1E0,9.644158E0,9.644158E0,1E0,1E0,2E0,1E0,6.0329994E5,2E0,1.7951315E6,-7.9264395E-2,8.658875E5,1E0,1E0,1E0,1E0,1E0,-7.660432E-2,6.750747E-2,-7.857283E-2,-5.423023E-2,-7.299607E-2,-1.613923E-2,-5.7513375E-2,-2.5360806E-2,-7.273469E-2,-7.658049E-2,-5.09762E-2,-5.8503162E-2,-7.1316466E-2,3.9794028E-2,-6.692238E-2,-4.609221E-2,8.656549E-2,-4.5612764E-2,-7.5891174E-2,-6.8560414E-2,-8.4847234E-2,-2.4208983E-2,-7.9410516E-2,-6.809753E-2,8.810698E-2,-6.538681E-2,3.4052294E-3,-8.93661E-2,-1.07900456E-1,8.286677E-2,-2.3335597E-2,-3.2350764E-2,-6.435808E-2,-3.2849547E-2,-6.09087E-2,-6.328957E-2,-7.4220695E-2,-4.2202167E-2,-6.8576135E-2,-7.931785E-2,-5.9102643E-2,-1.0470669E-2,-6.989965E-2,-1.5889287E-3,-7.211998E-2,-6.984587E-2,-7.603903E-2,-4.0072273E-2,-6.525063E-2,-6.218816E-2,-7.186988E-2,-6.1189033E-2,-7.545477E-2],"split_indices":[10,36,13,27,17,17,17,26,6,27,13,36,18,85,22,28,14,18,72,26,85,26,14,24,6,75,3,83,5,61,0,29,85,22,0,41,3,23,0,28,14,84,72,28,14,14,30,11,22,5,3,22,3,0,3,84,11,24,11,58,0,0,0,0,0,0,0,0,0,0,0,0,0,0,0,0,0,0,0,0,0,0,0,0,0,0,0,0,0,0,0,0,0,0,0,0,0,0,0,0,0,0,0,0,0,0,0,0,0,0,0,0,0],"split_type":[0,0,0,0,0,0,0,0,0,0,0,0,0,0,0,0,0,0,0,0,0,0,0,0,0,0,0,0,0,0,0,0,0,0,0,0,0,0,0,0,0,0,0,0,0,0,0,0,0,0,0,0,0,0,0,0,0,0,0,0,0,0,0,0,0,0,0,0,0,0,0,0,0,0,0,0,0,0,0,0,0,0,0,0,0,0,0,0,0,0,0,0,0,0,0,0,0,0,0,0,0,0,0,0,0,0,0,0,0,0,0,0,0],"sum_hessian":[1.1844458E5,9.166663E4,2.677795E4,4.8325676E4,4.3340953E4,1.2345636E4,1.4432313E4,4.4725793E4,3.5998809E3,3.4701953E4,8.639003E3,9.655261E3,2.6903757E3,1.0704217E4,3.7280974E3,3.6570785E4,8.1550107E3,2.302403E3,1.2974777E3,3.0047285E4,4.6546665E3,3.7672383E3,4.871765E3,7.7972764E3,1.8579838E3,1.8690812E3,8.2129456E2,5.8014585E3,4.902758E3,2.522408E3,1.2056893E3,3.4319734E4,2.251049E3,7.291496E3,8.635144E2,1.6460258E3,6.563773E2,1.1652705E3,1.3220721E2,2.0398332E4,9.648953E3,2.4678752E3,2.1867913E3,2.5444526E3,1.2227856E3,4.5158647E3,3.5590027E2,4.504473E3,3.2928037E3,1.1970941E3,6.6088965E2,1.5441001E3,3.2498105E2,3.3570096E2,4.855936E2,4.283197E3,1.5182616E3,1.835895E3,3.066863E3,2.0333882E3,4.8901974E2,3.365951E4,6.6022406E2,1.2154045E3,1.0356444E3,5.404748E3,1.8867485E3,1.4012764E3,2.4474936E2,3.3676328E2,3.1961407E2,6.7894116E2,4.8632928E2,1.7284863E4,3.113469E3,8.959228E3,6.897257E2,1.7351002E3,7.32775E2,1.9685754E3,2.1821585E2,2.0754446E3,4.6900806E2,1.196573E3,2.6212597E1,4.306221E3,2.0964377E2,1.8483937E2,1.710609E2,1.6848854E3,2.8195874E3,2.3533206E3,9.3948315E2,4.659603E2,7.311338E2,2.0839378E2,4.5249588E2,1.0833529E3,4.6074728E2,2.8806137E2,3.6919666E1,1.4729151E1,4.7086444E2,2.7088176E3,1.5743794E3,6.601096E2,8.581519E2,1.1245146E3,7.1138043E2,1.3437343E3,1.7231287E3,1.5436824E3,4.897059E2],"tree_param":{"num_deleted":"0","num_feature":"87","num_nodes":"113","size_leaf_vector":"1"}},{"base_weights":[-9.402737E-4,1.9401568E-1,-8.790748E-1,3.39875E-1,-1.0267671E0,-6.4318395E-1,-1.1724763E0,5.2749085E-1,-1.0111698E0,-8.80878E-1,-1.3794245E0,-3.429573E-1,-1.361652E0,-1.0156759E0,-1.3286223E0,7.717927E-1,-9.7567827E-1,-7.8371775E-1,-1.2542148E0,8.464261E-2,-9.8138076E-1,-1.3446153E0,-1.9648384E0,-3.5060763E-2,-1.4729111E0,-1.3456528E0,-1.9048935E0,-6.2316036E-1,-1.4467722E0,-1.2894975E0,-1.888152E0,1.1000407E0,-7.361629E-1,-7.375499E-1,-1.2277135E0,-2.7451912E-1,-1.4208055E0,-1.2178386E0,-1.1129295E-1,-6.8684876E-1,-1.1784068E0,-8.6621344E-1,-1.3808428E0,-8.6138874E-2,-2.0680702E0,5.126264E-1,-1.4266357E0,-7.1549076E-1,-1.4869096E0,8.0960326E-2,-1.3568666E0,1.8206501E-2,-9.74754E-2,2.543587E-1,-1.4226366E0,-1.4298403E0,-1.6620282E0,-1.3270186E0,-9.9330574E-2,-1.6805996E0,-1.04158185E-1,5.8810063E-2,2.2602675E-3,-4.2520244E-2,7.3397905E-3,-1.1185362E-2,-6.8646304E-2,-5.958364E-2,-1.0888779E-1,3.1363137E-2,-7.013927E-2,-6.923465E-2,-8.4928565E-2,-5.2505117E-2,-7.045736E-2,-2.4225667E-2,-6.0491968E-2,-5.4046836E-2,-7.437363E-2,-4.9009208E-2,5.7750076E-2,-6.3789256E-2,-7.417587E-2,-4.3703392E-2,-1.04480185E-1,3.6536604E-2,-2.372164E-2,-1.6998528E-2,-7.2654806E-2,7.581758E-2,-9.691047E-2,-7.337792E-2,-9.297129E-2,-6.900047E-2,-4.273274E-2,8.021204E-2,-7.462369E-2,-4.780391E-2,-7.262706E-2,-7.2406195E-2,-2.3276836E-2,-8.341831E-2,-2.2702044E-2,7.951362E-2,-6.667011E-2,7.3835544E-2,-5.6852397E-2,7.9735E-2,-9.1996066E-2],"categories":[],"categories_nodes":[],"categories_segments":[],"categories_sizes":[],"default_left":[0,0,0,0,0,0,0,0,0,0,0,0,0,0,0,0,0,0,0,0,0,0,0,0,0,0,0,0,0,0,0,0,0,0,0,0,0,0,0,0,0,0,0,0,0,0,0,0,0,0,0,0,0,0,0,0,0,0,0,0,0,0,0,0,0,0,0,0,0,0,0,0,0,0,0,0,0,0,0,0,0,0,0,0,0,0,0,0,0,0,0,0,0,0,0,0,0,0,0,0,0,0,0,0,0,0,0,0,0],"id":8,"left_children":[1,3,5,7,9,11,13,15,17,19,21,23,25,27,29,31,33,35,37,-1,39,41,43,45,47,49,51,53,55,57,59,61,63,65,67,69,71,73,-1,75,77,79,81,-1,83,85,87,89,91,-1,93,-1,-1,95,97,99,101,103,105,107,-1,-1,-1,-1,-1,-1,-1,-1,-1,-1,-1,-1,-1,-1,-1,-1,-1,-1,-1,-1,-1,-1,-1,-1,-1,-1,-1,-1,-1,-1,-1,-1,-1,-1,-1,-1,-1,-1,-1,-1,-1,-1,-1,-1,-1,-1,-1,-1,-1],"loss_changes":[2.003332E4,1.7051463E4,1.4706387E3,2.16829E4,5.246162E2,2.5420308E3,2.3059961E2,2.7583205E4,5.7563086E2,1.8724497E3,5.826758E1,2.8926428E3,2.7626465E1,7.996655E2,1.0140723E2,3.1981688E4,6.2933496E2,1.7484072E3,1.7545312E2,0E0,4.0315527E2,4.7754883E1,5.7489014E-1,4.981443E3,1.7813477E1,1.1449072E2,1.052594E1,1.7389158E3,5.838379E0,1.9799219E2,8.959473E0,4.26266E3,1.1652422E3,1.7633574E3,1.7203174E2,3.0505422E3,2.1665527E1,1.5450928E2,0E0,2.949253E2,1.2400098E2,4.755194E1,2.6411621E1,0E0,1.0298767E0,1.0100658E3,5.258252E1,9.63654E1,9.866211E0,0E0,3.793457E1,0E0,0E0,2.7901746E3,1.670581E1,3.6294434E1,4.5376587E-1,8.221484E1,2.2520828E2,8.345532E1,0E0,0E0,0E0,0E0,0E0,0E0,0E0,0E0,0E0,0E0,0E0,0E0,0E0,0E0,0E0,0E0,0E0,0E0,0E0,0E0,0E0,0E0,0E0,0E0,0E0,0E0,0E0,0E0,0E0,0E0,0E0,0E0,0E0,0E0,0E0,0E0,0E0,0E0,0E0,0E0,0E0,0E0,0E0,0E0,0E0,0E0,0E0,0E0,0E0],"parents":[2147483647,0,0,1,1,2,2,3,3,4,4,5,5,6,6,7,7,8,8,9,9,10,10,11,11,12,12,13,13,14,14,15,15,16,16,17,17,18,18,20,20,21,21,22,22,23,23,24,24,25,25,26,26,27,27,28,28,29,29,30,30,31,31,32,32,33,33,34,34,35,35,36,36,37,37,39,39,40,40,41,41,42,42,44,44,45,45,46,46,47,47,48,48,50,50,53,53,54,54,55,55,56,56,57,57,58,58,59,59],"right_children":[2,4,6,8,10,12,14,16,18,20,22,24,26,28,30,32,34,36,38,-1,40,42,44,46,48,50,52,54,56,58,60,62,64,66,68,70,72,74,-1,76,78,80,82,-1,84,86,88,90,92,-1,94,-1,-1,96,98,100,102,104,106,108,-1,-1,-1,-1,-1,-1,-1,-1,-1,-1,-1,-1,-1,-1,-1,-1,-1,-1,-1,-1,-1,-1,-1,-1,-1,-1,-1,-1,-1,-1,-1,-1,-1,-1,-1,-1,-1,-1,-1,-1,-1,-1,-1,-1,-1,-1,-1,-1,-1],"split_conditions":[1E0,1E0,1E0,1E0,1E0,1E0,1E0,1E0,1E0,6E0,1.3064465E1,1E0,1E0,1E0,1.3685141E1,1E0,1E0,1E0,1E0,8.464261E-2,1E0,1E0,1E0,1E0,1E0,1E0,1.15357685E1,1E0,8.0077153E-1,1.00186E1,1E0,1E0,1.00186E1,1E0,1E0,1E0,1E0,1E0,-1.1129295E-1,2E0,1E0,9.983542E0,1E0,-8.6138874E-2,4.439723E4,2E0,1E0,1.17272005E1,1.2054117E1,8.0960326E-2,1.00186E1,1.8206501E-2,-9.74754E-2,1E0,3.820074E-4,1.00186E1,1E0,1E0,1.15357685E1,1E0,-1.04158185E-1,5.8810063E-2,2.2602675E-3,-4.2520244E-2,7.3397905E-3,-1.1185362E-2,-6.8646304E-2,-5.958364E-2,-1.0888779E-1,3.1363137E-2,-7.013927E-2,-6.923465E-2,-8.4928565E-2,-5.2505117E-2,-7.045736E-2,-2.4225667E-2,-6.0491968E-2,-5.4046836E-2,-7.437363E-2,-4.9009208E-2,5.7750076E-2,-6.3789256E-2,-7.417587E-2,-4.3703392E-2,-1.04480185E-1,3.6536604E-2,-2.372164E-2,-1.6998528E-2,-7.2654806E-2,7.581758E-2,-9.691047E-2,-7.337792E-2,-9.297129E-2,-6.900047E-2,-4.273274E-2,8.021204E-2,-7.462369E-2,-4.780391E-2,-7.262706E-2,-7.2406195E-2,-2.3276836E-2,-8.341831E-2,-2.2702044E-2,7.951362E-2,-6.667011E-2,7.3835544E-2,-5.6852397E-2,7.9735E-2,-9.1996066E-2],"split_indices":[17,39,73,41,18,75,36,38,36,15,14,65,30,37,14,40,36,37,30,0,5,54,36,74,32,32,14,24,20,14,30,62,14,37,30,24,31,73,0,22,37,14,36,0,3,22,32,14,14,0,14,0,0,35,20,14,31,32,14,29,0,0,0,0,0,0,0,0,0,0,0,0,0,0,0,0,0,0,0,0,0,0,0,0,0,0,0,0,0,0,0,0,0,0,0,0,0,0,0,0,0,0,0,0,0,0,0,0,0],"split_type":[0,0,0,0,0,0,0,0,0,0,0,0,0,0,0,0,0,0,0,0,0,0,0,0,0,0,0,0,0,0,0,0,0,0,0,0,0,0,0,0,0,0,0,0,0,0,0,0,0,0,0,0,0,0,0,0,0,0,0,0,0,0,0,0,0,0,0,0,0,0,0,0,0,0,0,0,0,0,0,0,0,0,0,0,0,0,0,0,0,0,0,0,0,0,0,0,0,0,0,0,0,0,0,0,0,0,0,0,0],"sum_hessian":[1.17016734E5,9.575811E4,2.1258621E4,8.553866E4,1.0219452E4,1.1786016E4,9.472606E3,7.510908E4,1.0429578E4,7.231419E3,2.9880332E3,8.313519E3,3.4724973E3,4.730146E3,4.7424604E3,6.4609016E4,1.0500065E4,5.3897964E3,5.0397812E3,2.7117514E2,6.9602437E3,2.8234458E3,1.6458739E2,6.534099E3,1.7794191E3,3.376531E3,9.596635E1,2.477141E3,2.2530046E3,4.435607E3,3.0685342E2,5.305944E4,1.1549573E4,5.4010044E3,5.099061E3,2.9963584E3,2.393438E3,4.8600845E3,1.7969704E2,2.791599E3,4.1686445E3,2.0051051E2,2.6229353E3,5.4494843E1,1.10092545E2,4.6891895E3,1.8449097E3,3.323573E1,1.7461833E3,1.2182474E1,3.3643486E3,1.7124419E0,9.42539E1,1.1812559E3,1.2958853E3,2.0957942E3,1.5721062E2,4.299932E3,1.3567453E2,1.5330637E2,1.5354704E2,4.9486344E4,3.5730994E3,1.0226455E4,1.3231174E3,2.9868367E3,2.414168E3,4.914865E3,1.8419576E2,1.6655719E3,1.3307865E3,2.1233633E3,2.7007492E2,2.5930378E3,2.2670466E3,2.0142495E3,7.7734955E2,3.1725999E3,9.960449E2,1.9029533E2,1.0215176E1,1.3030583E3,1.3198768E3,2.6871026E0,1.0740544E2,3.8407725E3,8.4841705E2,4.418502E1,1.8007246E3,1.1678563E1,2.1557165E1,1.6646489E3,8.153443E1,3.2144731E3,1.4987546E2,6.663833E2,5.148726E2,8.0044075E1,1.2158412E3,2.0563042E3,3.9489975E1,1.5601096E2,1.1996701E0,8.846696E0,4.2910854E3,5.36977E1,8.197684E1,6.693508E0,1.4661285E2],"tree_param":{"num_deleted":"0","num_feature":"87","num_nodes":"109","size_leaf_vector":"1"}},{"base_weights":[3.8579697E-4,2.3247325E-1,-7.9712373E-1,4.828957E-1,-6.157784E-1,-5.619421E-1,-1.0900363E0,6.616799E-1,-1.2763273E0,-7.968634E-1,1.6016951E0,-2.4574113E-1,-1.3348266E0,-9.024801E-1,-1.2359711E0,8.6083126E-1,-1.3093528E0,-1.154983E0,-1.4101868E0,-5.5828476E-1,-1.0978242E0,7.909059E-2,8.5098706E-2,5.4519767E-1,-1.2862531E0,-1.2723787E0,-1.4649866E0,-6.1023694E-1,-1.0942819E0,-1.143124E0,-1.3689852E0,1.0113482E0,-9.9501467E-1,-1.1908941E0,-1.545899E0,-9.7596604E-1,-1.4855621E0,-1.3493112E0,-7.523064E-2,-2.0532615E-1,-1.3816587E0,-8.56847E-1,-1.2819176E0,1.6991956E0,-1.4531901E0,-1.1230665E0,-1.4223667E0,8.950036E-2,-1.3108912E0,-1.2333399E0,-7.448135E-2,-3.9477646E-1,-1.1703792E0,-1.0176088E0,-1.4997135E0,7.753705E-2,-1.3031161E0,-1.3443059E0,-7.461881E-2,5.6308653E-2,1.1038089E-2,-2.227985E-2,-9.597829E-2,-5.422302E-2,-7.0919864E-2,-7.548928E-2,-9.2495725E-2,-1.6351989E-2,-7.3432975E-2,-7.526897E-2,-6.662603E-2,-6.393908E-2,-7.464494E-2,3.217652E-2,-6.652121E-2,-6.46733E-2,-7.215651E-2,-3.459988E-2,-6.371483E-2,-6.1532665E-2,-7.5527966E-2,8.297316E-2,9.24851E-2,-6.9723345E-2,-7.4748285E-2,8.832677E-2,-6.939825E-2,-7.285694E-2,-6.7784645E-2,-5.9584E-2,-6.9891945E-2,-7.010929E-2,2.9200802E-2,-1.1964842E-2,-6.638265E-2,-1.3233612E-2,-6.202386E-2,-3.8215347E-2,-6.507702E-2,-7.6594375E-2,-6.7460194E-2,-5.9755474E-2,-6.8233535E-2,-6.566991E-2,-7.344731E-2],"categories":[],"categories_nodes":[],"categories_segments":[],"categories_sizes":[],"default_left":[0,0,0,0,0,0,0,0,0,0,0,0,0,0,0,0,0,0,0,0,0,0,0,0,0,0,0,0,0,0,0,0,0,0,0,0,0,0,0,0,0,0,0,0,0,0,0,0,0,0,0,0,0,0,0,0,0,0,0,0,0,0,0,0,0,0,0,0,0,0,0,0,0,0,0,0,0,0,0,0,0,0,0,0,0,0,0,0,0,0,0,0,0,0,0,0,0,0,0,0,0,0,0,0,0],"id":9,"left_children":[1,3,5,7,9,11,13,15,17,19,21,23,25,27,29,31,33,35,37,39,41,-1,-1,43,45,47,49,51,53,55,57,59,61,63,65,67,69,71,-1,73,75,77,79,81,83,85,87,-1,89,91,-1,93,95,97,99,-1,101,103,-1,-1,-1,-1,-1,-1,-1,-1,-1,-1,-1,-1,-1,-1,-1,-1,-1,-1,-1,-1,-1,-1,-1,-1,-1,-1,-1,-1,-1,-1,-1,-1,-1,-1,-1,-1,-1,-1,-1,-1,-1,-1,-1,-1,-1,-1,-1],"loss_changes":[2.141721E4,1.9039201E4,1.7961914E3,2.1765584E4,8.204766E3,3.5357847E3,3.1679492E2,2.4658703E4,1.02069336E2,1.355584E3,3.8378906E-1,8.452373E3,3.2280273E1,2.8443457E2,7.9075195E1,1.5937859E4,1.5969629E2,1.9704492E2,1.5392578E1,3.062192E3,3.6936914E2,0E0,0E0,1.3459265E4,9.69209E1,3.3804785E2,5.898926E0,2.430517E2,9.389502E1,1.6619658E3,6.1523438E0,4.790426E3,2.1735269E3,9.15791E1,1.829004E1,6.9611694E2,1.5620117E0,1.685254E1,0E0,7.0463687E3,1.5274414E1,2.4821411E2,5.360791E1,1.905371E1,3.1567383E0,1.5500696E3,3.6220703E0,0E0,2.747705E1,4.2588684E1,0E0,2.11257E2,3.522534E1,1.8488623E2,2.869873E-1,0E0,2.254248E1,6.709961E0,0E0,0E0,0E0,0E0,0E0,0E0,0E0,0E0,0E0,0E0,0E0,0E0,0E0,0E0,0E0,0E0,0E0,0E0,0E0,0E0,0E0,0E0,0E0,0E0,0E0,0E0,0E0,0E0,0E0,0E0,0E0,0E0,0E0,0E0,0E0,0E0,0E0,0E0,0E0,0E0,0E0,0E0,0E0,0E0,0E0,0E0,0E0],"parents":[2147483647,0,0,1,1,2,2,3,3,4,4,5,5,6,6,7,7,8,8,9,9,10,10,11,11,12,12,13,13,14,14,15,15,16,16,17,17,18,18,19,19,20,20,23,23,24,24,25,25,26,26,27,27,28,28,29,29,30,30,31,31,32,32,33,33,34,34,35,35,36,36,37,37,39,39,40,40,41,41,42,42,43,43,44,44,45,45,46,46,48,48,49,49,51,51,52,52,53,53,54,54,56,56,57,57],"right_children":[2,4,6,8,10,12,14,16,18,20,22,24,26,28,30,32,34,36,38,40,42,-1,-1,44,46,48,50,52,54,56,58,60,62,64,66,68,70,72,-1,74,76,78,80,82,84,86,88,-1,90,92,-1,94,96,98,100,-1,102,104,-1,-1,-1,-1,-1,-1,-1,-1,-1,-1,-1,-1,-1,-1,-1,-1,-1,-1,-1,-1,-1,-1,-1,-1,-1,-1,-1,-1,-1,-1,-1,-1,-1,-1,-1,-1,-1,-1,-1,-1,-1,-1,-1,-1,-1,-1,-1],"split_conditions":[1E0,1E0,1E0,1E0,9.644158E0,1E0,1E0,1E0,1E0,1E0,1E0,1E0,1E0,1E0,1E0,1.3685141E1,1E0,1E0,1E0,1E0,1E0,7.909059E-2,8.5098706E-2,1E0,1E0,6E0,1.7962781E5,2E0,1E0,1E0,1E0,1E0,1E0,2E0,1E0,1E0,8.775E-1,1E0,-7.523064E-2,1E0,1E0,1E0,1E0,1E0,4.1303998E-1,1E0,8.610345E0,8.950036E-2,1E0,1.7172805E5,-7.448135E-2,1E0,1E0,1E0,1E0,7.753705E-2,1E0,1E0,-7.461881E-2,5.6308653E-2,1.1038089E-2,-2.227985E-2,-9.597829E-2,-5.422302E-2,-7.0919864E-2,-7.548928E-2,-9.2495725E-2,-1.6351989E-2,-7.3432975E-2,-7.526897E-2,-6.662603E-2,-6.393908E-2,-7.464494E-2,3.217652E-2,-6.652121E-2,-6.46733E-2,-7.215651E-2,-3.459988E-2,-6.371483E-2,-6.1532665E-2,-7.5527966E-2,8.297316E-2,9.24851E-2,-6.9723345E-2,-7.4748285E-2,8.832677E-2,-6.939825E-2,-7.285694E-2,-6.7784645E-2,-5.9584E-2,-6.9891945E-2,-7.010929E-2,2.9200802E-2,-1.1964842E-2,-6.638265E-2,-1.3233612E-2,-6.202386E-2,-3.8215347E-2,-6.507702E-2,-7.6594375E-2,-6.7460194E-2,-5.9755474E-2,-6.8233535E-2,-6.566991E-2,-7.344731E-2],"split_indices":[10,26,73,28,14,75,13,31,73,73,40,76,18,5,34,14,37,75,6,76,13,0,0,72,11,15,3,22,35,11,86,37,30,22,72,76,9,18,0,75,13,37,63,34,9,34,14,0,13,3,0,66,54,34,62,0,5,59,0,0,0,0,0,0,0,0,0,0,0,0,0,0,0,0,0,0,0,0,0,0,0,0,0,0,0,0,0,0,0,0,0,0,0,0,0,0,0,0,0,0,0,0,0,0,0],"split_type":[0,0,0,0,0,0,0,0,0,0,0,0,0,0,0,0,0,0,0,0,0,0,0,0,0,0,0,0,0,0,0,0,0,0,0,0,0,0,0,0,0,0,0,0,0,0,0,0,0,0,0,0,0,0,0,0,0,0,0,0,0,0,0,0,0,0,0,0,0,0,0,0,0,0,0,0,0,0,0,0,0,0,0,0,0,0,0,0,0,0,0,0,0,0,0,0,0,0,0,0,0,0,0,0,0],"sum_hessian":[1.1570919E5,8.9627055E4,2.6082133E4,6.9198555E4,2.0428498E4,1.4468324E4,1.161381E4,6.2815445E4,6.383111E3,1.8886791E4,1.5417069E3,1.0268581E4,4.199743E3,5.0853193E3,6.5284897E3,5.705157E4,5.763874E3,3.3531223E3,3.0299885E3,1.0536844E4,8.349947E3,1.300599E3,2.411079E2,5.8342144E3,4.4343667E3,2.8453708E3,1.3543724E3,2.0167043E3,3.068615E3,3.8504062E3,2.6780833E3,5.2771996E4,4.2795776E3,3.8445972E3,1.9192767E3,2.1777615E3,1.175361E3,1.8515815E3,1.1784069E3,7.376138E3,3.1607056E3,3.618719E3,4.731228E3,3.6985708E3,2.1356436E3,2.0208372E3,2.4135293E3,3.477407E1,2.810597E3,1.3512312E2,1.2192494E3,1.4577002E3,5.5900415E2,2.5835393E3,4.850757E2,2.1537303E2,3.6350332E3,2.241631E3,4.3645218E2,4.607905E4,6.692944E3,2.685307E3,1.5942709E3,2.6231587E3,1.2214386E3,1.7208289E3,1.9844794E2,9.4058325E2,1.2371782E3,1.0327894E3,1.4257153E2,1.2483174E3,6.0326416E2,4.204433E3,3.1717048E3,1.3072493E3,1.8534563E3,2.5961616E3,1.0225574E3,3.8699255E3,8.613028E2,2.9356191E3,7.6295166E2,9.020404E2,1.2336031E3,1.6922334E2,1.8516138E3,1.5725502E3,8.409791E2,1.1915734E3,1.6190234E3,1.2384542E2,1.127771E1,1.250534E3,2.0716615E2,4.049973E1,5.185044E2,1.3673695E3,1.2161699E3,3.920835E2,9.2992195E1,1.3270094E3,2.308024E3,1.8054586E3,4.3617245E2],"tree_param":{"num_deleted":"0","num_feature":"87","num_nodes":"105","size_leaf_vector":"1"}},{"base_weights":[2.7840973E-3,2.2489667E-1,-7.675413E-1,3.9782166E-1,-1.1470138E0,-6.5087795E-1,-1.3467286E0,7.3977965E-1,-5.949021E-1,-1.024207E0,-1.3521949E0,-4.9369058E-1,-1.2987846E0,-1.2714846E0,-1.4526201E0,9.765115E-1,-1.2357372E0,-7.3994124E-1,1.5070763E-1,-8.894767E-1,-1.341509E0,-1.3083011E0,-1.5309618E0,-2.4429497E-1,-1.2573434E0,-1.2360784E0,-1.3863357E0,7.872341E-2,-1.4110022E0,-7.384096E-2,-1.3861891E0,1.2499554E0,-1.261412E0,-1.0958843E0,-1.3921484E0,-6.2104267E-1,-1.3574644E0,6.0071474E-1,-5.420144E-1,-6.506766E-1,-1.1780672E0,-1.3091031E0,-8.19788E-2,-1.2738491E0,-1.589506E0,-1.0450777E0,-7.677665E-2,2.4910827E-1,-1.2547756E0,-1.1535406E0,-1.3702607E0,8.304844E-2,-1.3257737E0,-1.3359619E0,-1.4189023E0,-1.3491153E0,-7.363753E-2,-7.170691E-2,-1.1813207E0,6.905776E-2,-8.643117E-2,-5.7256162E-2,-7.459041E-2,-4.686978E-2,-7.273145E-2,-6.6603534E-2,-7.278912E-2,-2.2611048E-2,-6.6667855E-2,-6.6384226E-2,-8.01804E-2,3.734609E-2,-7.1736686E-2,-1.9393647E-2,-7.422646E-2,-1.6139954E-2,-6.9992356E-2,-5.3306937E-2,-7.122128E-2,-6.102715E-2,-7.1919434E-2,-5.6323607E-2,-7.018022E-2,-7.914871E-3,-7.988932E-2,1.9049932E-3,-5.977863E-2,8.4765546E-2,-6.1136868E-2,-5.691737E-2,-6.7424275E-2,-5.1579077E-2,-7.1016446E-2,-6.783482E-2,-7.379059E-2,-6.314716E-2,-6.956395E-2,-6.84843E-2,-5.541913E-2,-7.150848E-2,-5.6803044E-2,-6.051473E-2,-7.151733E-2,-7.017924E-2,-3.822619E-2],"categories":[],"categories_nodes":[],"categories_segments":[],"categories_sizes":[],"default_left":[0,0,0,0,0,0,0,0,0,0,0,0,0,0,0,0,0,0,0,0,0,0,0,0,0,0,0,0,0,0,0,0,0,0,0,0,0,0,0,0,0,0,0,0,0,0,0,0,0,0,0,0,0,0,0,0,0,0,0,0,0,0,0,0,0,0,0,0,0,0,0,0,0,0,0,0,0,0,0,0,0,0,0,0,0,0,0,0,0,0,0,0,0,0,0,0,0,0,0,0,0,0,0,0,0],"id":10,"left_children":[1,3,5,7,9,11,13,15,17,19,21,23,25,27,29,31,33,35,37,39,41,43,45,47,49,51,53,-1,55,-1,57,59,61,63,65,67,69,71,73,75,77,79,-1,81,83,85,-1,87,89,91,93,-1,95,97,99,101,-1,-1,103,-1,-1,-1,-1,-1,-1,-1,-1,-1,-1,-1,-1,-1,-1,-1,-1,-1,-1,-1,-1,-1,-1,-1,-1,-1,-1,-1,-1,-1,-1,-1,-1,-1,-1,-1,-1,-1,-1,-1,-1,-1,-1,-1,-1,-1,-1],"loss_changes":[1.95552E4,2.104644E4,1.727499E3,2.6744941E4,2.4884082E2,2.1678486E3,3.2313965E1,2.740589E4,2.1830278E3,2.6455957E2,2.7148438E1,3.2634565E3,2.1106934E1,1.00063306E3,8.0493164E-1,3.2023867E4,1.3565039E2,1.2398936E3,1.0252863E3,3.001565E2,1.5731689E1,2.6938965E1,9.033203E-3,6.441581E3,4.7865723E1,6.339402E2,9.362793E-1,0E0,7.175293E0,0E0,3.1190186E0,1.8225422E4,1.5095898E2,1.871438E2,9.36377E0,1.7036455E3,1.786377E1,5.943743E2,1.8761084E2,5.870192E2,5.2966553E1,1.7414795E1,0E0,4.9445312E1,3.566162E0,1.6597452E0,0E0,1.8481488E4,4.471289E1,7.025757E1,8.833008E-1,0E0,7.9506836E0,3.8156738E0,1.6655273E0,1.1906006E1,0E0,0E0,8.061203E0,0E0,0E0,0E0,0E0,0E0,0E0,0E0,0E0,0E0,0E0,0E0,0E0,0E0,0E0,0E0,0E0,0E0,0E0,0E0,0E0,0E0,0E0,0E0,0E0,0E0,0E0,0E0,0E0,0E0,0E0,0E0,0E0,0E0,0E0,0E0,0E0,0E0,0E0,0E0,0E0,0E0,0E0,0E0,0E0,0E0,0E0],"parents":[2147483647,0,0,1,1,2,2,3,3,4,4,5,5,6,6,7,7,8,8,9,9,10,10,11,11,12,12,13,13,14,14,15,15,16,16,17,17,18,18,19,19,20,20,21,21,22,22,23,23,24,24,25,25,26,26,28,28,30,30,31,31,32,32,33,33,34,34,35,35,36,36,37,37,38,38,39,39,40,40,41,41,43,43,44,44,45,45,47,47,48,48,49,49,50,50,52,52,53,53,54,54,55,55,58,58],"right_children":[2,4,6,8,10,12,14,16,18,20,22,24,26,28,30,32,34,36,38,40,42,44,46,48,50,52,54,-1,56,-1,58,60,62,64,66,68,70,72,74,76,78,80,-1,82,84,86,-1,88,90,92,94,-1,96,98,100,102,-1,-1,104,-1,-1,-1,-1,-1,-1,-1,-1,-1,-1,-1,-1,-1,-1,-1,-1,-1,-1,-1,-1,-1,-1,-1,-1,-1,-1,-1,-1,-1,-1,-1,-1,-1,-1,-1,-1,-1,-1,-1,-1,-1,-1,-1,-1,-1,-1],"split_conditions":[1E0,1E0,1E0,1E0,1E0,1E0,1E0,1E0,3.4029603E-2,2E0,1E0,1E0,1E0,1E0,5E0,1E0,1E0,1E0,1E1,1E0,1E0,1E0,1.36E-2,1E0,1E0,1E0,3.933196E-1,7.872341E-2,1E0,-7.384096E-2,1E0,1E0,1E0,1E0,1E0,1E0,1E0,1E0,1E0,1E0,1E0,4E0,-8.19788E-2,1E0,5.32E2,5E0,-7.677665E-2,1E0,1E0,1E0,1E0,8.304844E-2,1E0,5.041E3,2.3E1,1E0,-7.363753E-2,-7.170691E-2,2E0,6.905776E-2,-8.643117E-2,-5.7256162E-2,-7.459041E-2,-4.686978E-2,-7.273145E-2,-6.6603534E-2,-7.278912E-2,-2.2611048E-2,-6.6667855E-2,-6.6384226E-2,-8.01804E-2,3.734609E-2,-7.1736686E-2,-1.9393647E-2,-7.422646E-2,-1.6139954E-2,-6.9992356E-2,-5.3306937E-2,-7.122128E-2,-6.102715E-2,-7.1919434E-2,-5.6323607E-2,-7.018022E-2,-7.914871E-3,-7.988932E-2,1.9049932E-3,-5.977863E-2,8.4765546E-2,-6.1136868E-2,-5.691737E-2,-6.7424275E-2,-5.1579077E-2,-7.1016446E-2,-6.783482E-2,-7.379059E-2,-6.314716E-2,-6.956395E-2,-6.84843E-2,-5.541913E-2,-7.150848E-2,-5.6803044E-2,-6.051473E-2,-7.151733E-2,-7.017924E-2,-3.822619E-2],"split_indices":[10,27,42,26,6,39,24,28,20,22,42,41,24,11,16,31,85,41,15,73,72,72,9,38,85,11,9,0,73,0,62,29,37,86,73,39,72,41,39,76,18,16,0,73,19,7,0,40,11,84,72,0,85,19,15,5,0,0,22,0,0,0,0,0,0,0,0,0,0,0,0,0,0,0,0,0,0,0,0,0,0,0,0,0,0,0,0,0,0,0,0,0,0,0,0,0,0,0,0,0,0,0,0,0,0],"split_type":[0,0,0,0,0,0,0,0,0,0,0,0,0,0,0,0,0,0,0,0,0,0,0,0,0,0,0,0,0,0,0,0,0,0,0,0,0,0,0,0,0,0,0,0,0,0,0,0,0,0,0,0,0,0,0,0,0,0,0,0,0,0,0,0,0,0,0,0,0,0,0,0,0,0,0,0,0,0,0,0,0,0,0,0,0,0,0,0,0,0,0,0,0,0,0,0,0,0,0,0,0,0,0,0,0],"sum_hessian":[1.1428975E5,8.871168E4,2.5578068E4,7.878215E4,9.929531E3,2.1291527E4,4.2865415E3,5.8597613E4,2.0184537E4,6.2154175E3,3.7141135E3,1.7135965E4,4.155561E3,2.5135103E3,1.7730314E3,5.232756E4,6.2700557E3,1.689756E4,3.2869773E3,4.365553E3,1.8498643E3,2.9886182E3,7.254955E2,1.2918372E4,4.2175933E3,2.4301492E3,1.7254116E3,1.1698115E2,2.3965293E3,1.284056E3,4.8897537E2,4.6630395E4,5.6971616E3,3.3144734E3,2.9555823E3,1.4171056E4,2.7265046E3,1.9926451E3,1.2943322E3,2.3906313E3,1.9749219E3,1.6733314E3,1.7653279E2,2.667356E3,3.212621E2,8.902252E0,7.165932E2,8.680542E3,4.2378306E3,2.2033286E3,2.0142646E3,7.245415E1,2.357695E3,6.93984E2,1.0314277E3,1.2083334E3,1.1881958E3,3.9137457E2,9.76008E1,4.4663598E4,1.9667968E3,3.7901255E3,1.9070361E3,2.3013704E3,1.01310315E3,1.531552E3,1.4240302E3,1.1457267E4,2.7137888E3,2.4379417E3,2.8856302E2,1.8596954E3,1.3294962E2,1.1136193E3,1.807129E2,1.6638649E3,7.2676636E2,1.3616207E3,6.1330115E2,9.992738E2,6.740576E2,1.2534067E3,1.4139493E3,1.9637036E0,3.1929837E2,1.1770864E0,7.7251654E0,4.3783354E3,4.302206E3,1.8956991E3,2.3421316E3,1.5154332E3,6.878954E2,1.7971648E3,2.1709985E2,1.213766E3,1.143929E3,6.000472E2,9.393683E1,9.8801263E2,4.3415054E1,4.5192084E2,7.564126E2,6.2111313E1,3.5489487E1],"tree_param":{"num_deleted":"0","num_feature":"87","num_nodes":"105","size_leaf_vector":"1"}},{"base_weights":[-1.4456786E-3,2.148432E-1,-7.494896E-1,3.8099405E-1,-1.1048441E0,-6.370442E-1,-1.3093927E0,7.147462E-1,-5.737493E-1,-1.0015985E0,-1.3355063E0,-4.849283E-1,-1.2665395E0,-1.2486323E0,-7.192357E-2,8.0443573E-1,-1.7124149E0,-7.3303854E-1,4.4539787E-2,-8.14163E-1,-1.2222404E0,-1.3074548E0,-1.5814983E0,-2.4485491E-1,-1.2166342E0,-1.1962076E0,-1.3412209E0,7.979321E-2,-1.2720814E0,8.947975E-1,-1.648212E0,4.9732754E-1,-1.7976487E0,-5.374059E-1,-1.1012666E0,-4.30598E-1,1.5607749E0,-5.408672E-1,-1.384374E0,-1.1354637E0,-1.4061227E0,-1.2505692E0,-1.4213053E0,-7.922863E-2,-2.1764059E-2,2.2772594E-1,-1.1820539E0,-1.1087732E0,-1.336701E0,-1.1103175E0,-1.3799024E0,-1.3949418E0,-1.3121934E0,-1.1871264E0,-1.3934592E0,4.8863646E-2,-1.1975575E-2,-8.335798E-2,-1.4957628E-2,6.38937E-2,-8.2047075E-2,-4.355065E-2,-9.1655575E-2,-2.0025497E-2,-6.390081E-2,-5.250774E-2,-7.937336E-2,-3.8516812E-2,7.981246E-3,8.489726E-2,7.650655E-2,-9.910074E-3,-7.416745E-2,-6.56696E-2,-7.215843E-2,9.371183E-2,-5.931416E-2,-7.193878E-2,-6.6673465E-2,8.349945E-2,-6.374412E-2,-6.0421642E-2,-7.2009586E-2,2.0738935E-2,-3.4809217E-2,-5.0979365E-2,-6.568189E-2,-4.9351044E-2,-6.893814E-2,-6.75505E-2,-5.6652613E-2,-4.4637255E-2,-6.744422E-2,-4.9438313E-2,-6.9284506E-2,-6.993409E-2,-4.150613E-2,-6.310654E-2,-6.900485E-2,7.664984E-2,-6.807701E-2,-6.8767674E-2,-7.685545E-2],"categories":[],"categories_nodes":[],"categories_segments":[],"categories_sizes":[],"default_left":[0,0,0,0,0,0,0,0,0,0,0,0,0,0,0,0,0,0,0,0,0,0,0,0,0,0,0,0,0,0,0,0,0,0,0,0,0,0,0,0,0,0,0,0,0,0,0,0,0,0,0,0,0,0,0,0,0,0,0,0,0,0,0,0,0,0,0,0,0,0,0,0,0,0,0,0,0,0,0,0,0,0,0,0,0,0,0,0,0,0,0,0,0,0,0,0,0,0,0,0,0,0,0],"id":11,"left_children":[1,3,5,7,9,11,13,15,17,19,21,23,25,27,-1,29,31,33,35,37,39,41,43,45,47,49,51,-1,53,55,57,59,61,63,65,67,69,71,73,75,77,79,81,-1,-1,83,85,87,89,91,93,95,97,99,101,-1,-1,-1,-1,-1,-1,-1,-1,-1,-1,-1,-1,-1,-1,-1,-1,-1,-1,-1,-1,-1,-1,-1,-1,-1,-1,-1,-1,-1,-1,-1,-1,-1,-1,-1,-1,-1,-1,-1,-1,-1,-1,-1,-1,-1,-1,-1,-1],"loss_changes":[1.8149334E4,1.9080195E4,1.5831885E3,2.4627549E4,2.3039648E2,2.0058545E3,3.1198242E1,1.2468057E4,1.9717041E3,2.771621E2,1.867334E1,2.9644617E3,1.9812012E1,1.933252E2,0E0,1.2241352E4,3.8532275E2,1.1461455E3,2.9558574E3,5.6643286E2,4.7666992E1,1.5733887E1,3.7768555E-1,5.629233E3,5.2512207E1,3.1744385E1,1.2402344E0,0E0,2.7683105E1,4.9833945E3,4.967334E1,1.2992372E2,6.29917E1,1.0536621E3,1.355586E2,6.2656665E2,1.5170898E0,7.948279E2,3.0231934E0,3.238296E2,4.197998E-1,1.3074756E2,1.8521729E0,0E0,0E0,1.4605752E3,8.97417E1,7.10271E1,4.20459E0,7.365674E1,1.4160156E-1,2.647705E-1,2.661621E0,7.993159E2,9.177246E-1,0E0,0E0,0E0,0E0,0E0,0E0,0E0,0E0,0E0,0E0,0E0,0E0,0E0,0E0,0E0,0E0,0E0,0E0,0E0,0E0,0E0,0E0,0E0,0E0,0E0,0E0,0E0,0E0,0E0,0E0,0E0,0E0,0E0,0E0,0E0,0E0,0E0,0E0,0E0,0E0,0E0,0E0,0E0,0E0,0E0,0E0,0E0,0E0],"parents":[2147483647,0,0,1,1,2,2,3,3,4,4,5,5,6,6,7,7,8,8,9,9,10,10,11,11,12,12,13,13,15,15,16,16,17,17,18,18,19,19,20,20,21,21,22,22,23,23,24,24,25,25,26,26,28,28,29,29,30,30,31,31,32,32,33,33,34,34,35,35,36,36,37,37,38,38,39,39,40,40,41,41,42,42,45,45,46,46,47,47,48,48,49,49,50,50,51,51,52,52,53,53,54,54],"right_children":[2,4,6,8,10,12,14,16,18,20,22,24,26,28,-1,30,32,34,36,38,40,42,44,46,48,50,52,-1,54,56,58,60,62,64,66,68,70,72,74,76,78,80,82,-1,-1,84,86,88,90,92,94,96,98,100,102,-1,-1,-1,-1,-1,-1,-1,-1,-1,-1,-1,-1,-1,-1,-1,-1,-1,-1,-1,-1,-1,-1,-1,-1,-1,-1,-1,-1,-1,-1,-1,-1,-1,-1,-1,-1,-1,-1,-1,-1,-1,-1,-1,-1,-1,-1,-1,-1],"split_conditions":[1E0,1E0,1E0,1E0,2E0,1E0,1E0,1E0,2.5794588E-2,1E0,1E0,1E0,1E0,6E0,-7.192357E-2,1E0,9.48855E-2,1E0,5.708276E5,1E0,1E0,1E0,1.9775591E6,1E0,1E0,1E0,9.3E1,7.979321E-2,1E0,1E0,1.9847345E6,5E0,2.2835828E-1,1E0,1E0,9.48855E-2,3.2920096E-2,1E0,8.9262325E5,6E0,6.836E-1,6E0,9.94E2,-7.922863E-2,-2.1764059E-2,1E0,1E0,1E0,1.8721708E6,1E0,1.95E-2,1.9847345E6,1E0,1E0,1E0,4.8863646E-2,-1.1975575E-2,-8.335798E-2,-1.4957628E-2,6.38937E-2,-8.2047075E-2,-4.355065E-2,-9.1655575E-2,-2.0025497E-2,-6.390081E-2,-5.250774E-2,-7.937336E-2,-3.8516812E-2,7.981246E-3,8.489726E-2,7.650655E-2,-9.910074E-3,-7.416745E-2,-6.56696E-2,-7.215843E-2,9.371183E-2,-5.931416E-2,-7.193878E-2,-6.6673465E-2,8.349945E-2,-6.374412E-2,-6.0421642E-2,-7.2009586E-2,2.0738935E-2,-3.4809217E-2,-5.0979365E-2,-6.568189E-2,-4.9351044E-2,-6.893814E-2,-6.75505E-2,-5.6652613E-2,-4.4637255E-2,-6.744422E-2,-4.9438313E-2,-6.9284506E-2,-6.993409E-2,-4.150613E-2,-6.310654E-2,-6.900485E-2,7.664984E-2,-6.807701E-2,-6.8767674E-2,-7.685545E-2],"split_indices":[10,27,42,26,22,39,18,30,20,73,72,41,85,15,0,29,20,6,3,76,18,18,3,40,85,86,2,0,24,41,3,15,20,76,72,20,20,72,3,15,9,15,19,0,0,17,11,84,3,84,9,3,24,11,72,0,0,0,0,0,0,0,0,0,0,0,0,0,0,0,0,0,0,0,0,0,0,0,0,0,0,0,0,0,0,0,0,0,0,0,0,0,0,0,0,0,0,0,0,0,0,0,0],"split_type":[0,0,0,0,0,0,0,0,0,0,0,0,0,0,0,0,0,0,0,0,0,0,0,0,0,0,0,0,0,0,0,0,0,0,0,0,0,0,0,0,0,0,0,0,0,0,0,0,0,0,0,0,0,0,0,0,0,0,0,0,0,0,0,0,0,0,0,0,0,0,0,0,0,0,0,0,0,0,0,0,0,0,0,0,0,0,0,0,0,0,0,0,0,0,0,0,0,0,0,0,0,0,0],"sum_hessian":[1.1217387E5,8.70151E4,2.515877E4,7.7285445E4,9.729657E3,2.0952926E4,4.2058423E3,5.7266793E4,2.001865E4,6.7249014E3,3.0047559E3,1.687653E4,4.0763975E3,2.866964E3,1.3388779E3,5.52267E4,2.0400929E3,1.5917621E4,4.1010283E3,3.6385989E3,3.0863025E3,2.7028525E3,3.0190344E2,1.2708269E4,4.1682607E3,2.108096E3,1.9683015E3,2.2892776E1,2.8440715E3,5.3264918E4,1.9617808E3,7.558803E1,1.9645049E3,1.0396574E4,5.521047E3,3.123076E3,9.779524E2,2.4610117E3,1.177587E3,2.1016692E3,9.8463324E2,1.8103114E3,8.9254114E2,3.0071442E2,1.1890098E0,8.448756E3,4.2595127E3,2.20113E3,1.9671309E3,1.4412534E3,6.6684247E2,6.739575E2,1.294344E3,1.679402E3,1.1646694E3,4.9654676E4,3.6102441E3,1.9343763E3,2.7404354E1,5.566914E1,1.991889E1,7.335362E1,1.8911512E3,8.77595E3,1.6206239E3,4.998718E3,5.223292E2,1.9819441E3,1.141132E3,1.6864548E2,8.093069E2,1.8057067E3,6.553051E2,5.440732E2,6.335139E2,3.4302143E1,2.0673672E3,6.6634955E2,3.1828363E2,1.4387373E1,1.7959241E3,7.803E1,8.145111E2,7.0266978E3,1.422058E3,1.9099934E3,2.3495193E3,1.5202335E3,6.808965E2,1.832723E3,1.3440779E2,7.562748E2,6.8497864E2,1.2229187E1,6.546133E2,6.6805756E2,5.8999424E0,7.5632245E2,5.3802155E2,1.00725075E2,1.5786769E3,1.0436956E3,1.2097385E2],"tree_param":{"num_deleted":"0","num_feature":"87","num_nodes":"103","size_leaf_vector":"1"}},{"base_weights":[2.7684917E-4,2.082754E-1,-7.2245604E-1,6.5637547E-1,-2.8085864E-1,-4.5180017E-1,-9.576124E-1,7.8382146E-1,-8.8216877E-1,-1.245813E-1,-1.1743023E0,-2.2920898E-1,-9.012739E-1,-7.949702E-1,-1.1443833E0,1.0165725E0,-2.2483559E-1,-7.1359754E-1,-1.1828704E0,2.0572354E-1,-7.5617146E-1,-1.0550157E0,-1.3064865E0,-1.0038982E-1,-1.2515415E0,-7.918794E-1,-1.2777617E0,-5.5957025E-1,-1.2427341E0,-1.0546254E0,-1.2734035E0,1.1612908E0,-1.1897333E0,-4.170054E-1,7.427972E-2,-5.8910006E-1,-1.3818179E0,-1.138679E0,-7.842005E-2,5.226601E-1,-1.2663465E0,-8.9929193E-1,7.839646E-2,-8.7302995E-1,-1.3878771E0,-1.1978174E0,-1.3661257E0,4.7984283E-2,-1.1541469E0,-1.2675716E0,3.3888552E-1,-4.5540315E-1,-1.1095028E0,-1.1903912E0,-6.9513515E-2,-2.9305267E-1,-1.3469485E0,-1.1197203E0,-1.3463365E0,7.430077E-2,-1.2077705E0,-1.248214E0,-6.870074E-2,6.633068E-2,-5.6033917E-2,-5.113141E-2,-7.396888E-2,-1.39559675E-2,-6.1981585E-2,-2.1365976E-2,-6.24124E-2,-3.92999E-2,-7.03128E-2,-4.8378948E-2,-6.445452E-2,4.719647E-2,-6.396337E-2,-5.5432852E-2,-6.78963E-2,-3.0172987E-2,-5.4324098E-2,-3.173693E-2,-7.080214E-2,-6.353961E-2,-7.0949815E-2,-2.8733376E-2,-6.2222626E-2,-6.98577E-2,-6.223284E-2,1.2365257E-2,-5.489562E-2,-4.934337E-2,-7.089781E-2,8.331156E-3,-6.396254E-2,8.516929E-2,-6.0280472E-2,7.639473E-2,-4.568379E-2,-4.783931E-2,-6.437329E-2,-5.2802462E-2,-6.765071E-2,1.0398581E-2,-6.574769E-2,-6.79494E-2,-5.32435E-2,8.110984E-2,-6.739689E-2,-6.824906E-2,-6.35966E-2,-5.670808E-2,-6.488796E-2,-6.044277E-2,-6.828521E-2],"categories":[],"categories_nodes":[],"categories_segments":[],"categories_sizes":[],"default_left":[0,0,0,0,0,0,0,0,0,0,0,0,0,0,0,0,0,0,0,0,0,0,0,0,0,0,0,0,0,0,0,0,0,0,0,0,0,0,0,0,0,0,0,0,0,0,0,0,0,0,0,0,0,0,0,0,0,0,0,0,0,0,0,0,0,0,0,0,0,0,0,0,0,0,0,0,0,0,0,0,0,0,0,0,0,0,0,0,0,0,0,0,0,0,0,0,0,0,0,0,0,0,0,0,0,0,0,0,0,0,0,0,0,0,0],"id":12,"left_children":[1,3,5,7,9,11,13,15,17,19,21,23,25,27,29,31,33,35,37,39,41,43,45,47,49,51,53,55,57,59,61,63,65,67,-1,69,71,73,-1,75,77,79,-1,81,83,85,87,89,91,93,95,97,99,101,-1,103,105,107,109,-1,111,113,-1,-1,-1,-1,-1,-1,-1,-1,-1,-1,-1,-1,-1,-1,-1,-1,-1,-1,-1,-1,-1,-1,-1,-1,-1,-1,-1,-1,-1,-1,-1,-1,-1,-1,-1,-1,-1,-1,-1,-1,-1,-1,-1,-1,-1,-1,-1,-1,-1,-1,-1,-1,-1],"loss_changes":[1.6694684E4,1.890169E4,1.5791787E3,8.825646E3,5.756784E3,1.1543813E3,4.0247266E2,9.758084E3,1.7370142E2,7.321406E3,9.54082E1,1.0164878E3,1.5639355E2,7.478203E2,7.02124E1,1.0784379E4,2.5623438E3,1.8295642E2,1.9262085E1,1.0751893E4,4.009954E3,1.9455225E2,1.7207031E1,1.072094E3,2.2450562E1,3.162655E2,6.7873535E0,9.767262E2,2.9667236E1,1.4218416E3,4.6972656E0,1.1958109E4,9.912793E1,7.94478E2,0E0,1.98219E2,3.9353027E0,2.7370972E1,0E0,1.4395399E4,5.7453613E1,6.2802344E2,0E0,2.6980554E2,2.352539E0,2.9460693E1,5.309326E0,1.3732635E3,3.5948853E1,1.4540283E1,2.1880577E1,1.3110905E3,4.0187622E1,9.284607E0,0E0,1.7820449E3,2.5512695E0,7.0568726E2,9.887695E-2,0E0,2.133252E1,7.757324E0,0E0,0E0,0E0,0E0,0E0,0E0,0E0,0E0,0E0,0E0,0E0,0E0,0E0,0E0,0E0,0E0,0E0,0E0,0E0,0E0,0E0,0E0,0E0,0E0,0E0,0E0,0E0,0E0,0E0,0E0,0E0,0E0,0E0,0E0,0E0,0E0,0E0,0E0,0E0,0E0,0E0,0E0,0E0,0E0,0E0,0E0,0E0,0E0,0E0,0E0,0E0,0E0,0E0],"parents":[2147483647,0,0,1,1,2,2,3,3,4,4,5,5,6,6,7,7,8,8,9,9,10,10,11,11,12,12,13,13,14,14,15,15,16,16,17,17,18,18,19,19,20,20,21,21,22,22,23,23,24,24,25,25,26,26,27,27,28,28,29,29,30,30,31,31,32,32,33,33,35,35,36,36,37,37,39,39,40,40,41,41,43,43,44,44,45,45,46,46,47,47,48,48,49,49,50,50,51,51,52,52,53,53,55,55,56,56,57,57,58,58,60,60,61,61],"right_children":[2,4,6,8,10,12,14,16,18,20,22,24,26,28,30,32,34,36,38,40,42,44,46,48,50,52,54,56,58,60,62,64,66,68,-1,70,72,74,-1,76,78,80,-1,82,84,86,88,90,92,94,96,98,100,102,-1,104,106,108,110,-1,112,114,-1,-1,-1,-1,-1,-1,-1,-1,-1,-1,-1,-1,-1,-1,-1,-1,-1,-1,-1,-1,-1,-1,-1,-1,-1,-1,-1,-1,-1,-1,-1,-1,-1,-1,-1,-1,-1,-1,-1,-1,-1,-1,-1,-1,-1,-1,-1,-1,-1,-1,-1,-1,-1],"split_conditions":[1E0,1E0,1E0,1E0,1E0,1E0,1E0,1E0,1E0,1E0,1E0,1E0,1E0,1E0,1E0,1E0,9.644158E0,1E0,1E0,1E0,9.644158E0,1E0,1E0,1E0,5.732E3,1E0,3E0,1E0,1E0,1E0,1E0,1E0,1E0,1E0,7.427972E-2,1E0,2E0,1E0,-7.842005E-2,1E0,1E0,1E0,7.839646E-2,1E0,5E0,1E0,1.8861594E-2,1E0,1E0,6E0,7.11E-2,1E0,1E0,1E0,-6.9513515E-2,1E0,4.9E1,1E0,4E0,7.430077E-2,1E0,1E0,-6.870074E-2,6.633068E-2,-5.6033917E-2,-5.113141E-2,-7.396888E-2,-1.39559675E-2,-6.1981585E-2,-2.1365976E-2,-6.24124E-2,-3.92999E-2,-7.03128E-2,-4.8378948E-2,-6.445452E-2,4.719647E-2,-6.396337E-2,-5.5432852E-2,-6.78963E-2,-3.0172987E-2,-5.4324098E-2,-3.173693E-2,-7.080214E-2,-6.353961E-2,-7.0949815E-2,-2.8733376E-2,-6.2222626E-2,-6.98577E-2,-6.223284E-2,1.2365257E-2,-5.489562E-2,-4.934337E-2,-7.089781E-2,8.331156E-3,-6.396254E-2,8.516929E-2,-6.0280472E-2,7.639473E-2,-4.568379E-2,-4.783931E-2,-6.437329E-2,-5.2802462E-2,-6.765071E-2,1.0398581E-2,-6.574769E-2,-6.79494E-2,-5.32435E-2,8.110984E-2,-6.739689E-2,-6.824906E-2,-6.35966E-2,-5.670808E-2,-6.488796E-2,-6.044277E-2,-6.828521E-2],"split_indices":[10,36,13,27,27,6,73,26,6,26,73,77,36,76,24,31,14,58,72,28,14,76,5,79,19,24,23,72,11,11,68,28,6,41,0,61,7,73,0,31,5,5,0,72,15,54,20,78,24,2,9,11,73,73,0,64,7,24,23,0,36,69,0,0,0,0,0,0,0,0,0,0,0,0,0,0,0,0,0,0,0,0,0,0,0,0,0,0,0,0,0,0,0,0,0,0,0,0,0,0,0,0,0,0,0,0,0,0,0,0,0,0,0,0,0],"split_type":[0,0,0,0,0,0,0,0,0,0,0,0,0,0,0,0,0,0,0,0,0,0,0,0,0,0,0,0,0,0,0,0,0,0,0,0,0,0,0,0,0,0,0,0,0,0,0,0,0,0,0,0,0,0,0,0,0,0,0,0,0,0,0,0,0,0,0,0,0,0,0,0,0,0,0,0,0,0,0,0,0,0,0,0,0,0,0,0,0,0,0,0,0,0,0,0,0,0,0,0,0,0,0,0,0,0,0,0,0,0,0,0,0,0,0],"sum_hessian":[1.110535E5,8.623598E4,2.4817527E4,4.50056E4,4.1230375E4,1.1539236E4,1.3278291E4,4.1563184E4,3.4424148E3,3.5093168E4,6.1372065E3,7.7183945E3,3.8208418E3,7.1004204E3,6.1778706E3,3.3770516E4,7.792669E3,2.207999E3,1.2344155E3,2.3042977E4,1.2050189E4,3.2307068E3,2.9064998E3,6.8556465E3,8.627484E2,2.9629988E3,8.5784283E2,4.6552803E3,2.4451401E3,3.6486929E3,2.5291777E3,3.1692201E4,2.0783137E3,7.00626E3,7.8640936E2,1.8628158E3,3.451833E2,1.1110188E3,1.2339671E2,1.8961264E4,4.0817134E3,1.1351751E4,6.984394E2,2.0910737E3,1.1396329E3,1.0373749E3,1.8691249E3,6.010319E3,8.453275E2,8.5434045E2,8.407971E0,1.4399807E3,1.5230182E3,4.8938364E2,3.684592E2,3.479041E3,1.1762393E3,1.123246E3,1.3218943E3,2.0693784E2,3.441755E3,2.0334729E3,4.957049E2,2.9551678E4,2.1405244E3,1.3208207E3,7.574931E2,6.0016255E3,1.0046344E3,1.4970337E3,3.6578214E2,1.49067955E1,3.302765E2,5.232402E2,5.877786E2,1.5368717E4,3.5925476E3,1.5044058E3,2.5773076E3,4.400883E3,6.9508677E3,1.4548209E3,6.362529E2,2.4808006E2,8.915529E2,7.315677E1,9.642181E2,1.4804528E3,3.886722E2,5.120438E3,8.8988074E2,5.202081E2,3.2511942E2,6.7938347E0,8.4754663E2,4.4094877E0,3.9984837E0,2.698403E2,1.1701404E3,8.230794E2,6.999388E2,2.7209842E2,2.172852E2,2.3350125E3,1.1440286E3,1.1244296E3,5.1809673E1,8.5837975E1,1.037408E3,1.0431509E3,2.787434E2,1.9006594E3,1.5410956E3,1.5316636E3,5.0180927E2],"tree_param":{"num_deleted":"0","num_feature":"87","num_nodes":"115","size_leaf_vector":"1"}},{"base_weights":[6.648876E-6,1.9974223E-1,-6.940014E-1,6.344803E-1,-2.732885E-1,-5.84044E-1,-1.2488571E0,1.4196228E0,-6.5142715E-1,-1.2226282E-1,-1.1317058E0,-4.3471354E-1,-1.211513E0,-1.1932636E0,-6.833338E-2,1.4029044E0,1.5911937E0,-4.7605893E-1,-1.1091901E0,1.9874282E-1,-7.348025E-1,-1.0664277E0,-7.0925616E-2,-2.0013125E-1,-1.1629925E0,-1.1509042E0,-1.2963225E0,7.696431E-2,-1.2168882E0,1.3987114E0,8.160537E-2,8.229034E-2,1.4779853E0,-2.6432922E-1,-9.547558E-1,-1.0604892E0,-1.5664803E0,4.6351027E-1,-1.2379748E0,-8.521092E-1,-9.888789E-2,-7.888924E-1,-1.2720642E0,2.501039E-1,-1.1194755E0,-1.0551429E0,-1.2832327E0,8.089688E-2,-1.2435288E0,-1.2780565E0,-6.860081E-2,-1.1074847E0,-1.3025688E0,6.983328E-2,8.277014E-2,7.209067E-2,7.816963E-2,8.1338856E-4,-5.7769127E-2,-3.8572572E-2,-5.881847E-2,-4.323299E-2,-6.19339E-2,-4.932744E-2,-8.078223E-2,3.1744447E-2,-9.280052E-2,-5.92655E-2,-7.2399445E-2,-3.7360013E-2,-6.70524E-2,1.37887625E-2,-4.4959735E-2,-7.25102E-3,-6.753226E-2,-5.0071128E-2,-6.4560615E-2,1.9589307E-2,-4.4545155E-2,-4.764602E-2,-6.273851E-2,-4.6585627E-2,-6.6251E-2,-6.741417E-2,-6.2723406E-2,-5.9014004E-2,-6.543168E-2,-6.278565E-2,-6.716474E-2,7.4215166E-2,-6.664009E-2,-6.0797848E-2,-6.9555335E-2],"categories":[],"categories_nodes":[],"categories_segments":[],"categories_sizes":[],"default_left":[0,0,0,0,0,0,0,0,0,0,0,0,0,0,0,0,0,0,0,0,0,0,0,0,0,0,0,0,0,0,0,0,0,0,0,0,0,0,0,0,0,0,0,0,0,0,0,0,0,0,0,0,0,0,0,0,0,0,0,0,0,0,0,0,0,0,0,0,0,0,0,0,0,0,0,0,0,0,0,0,0,0,0,0,0,0,0,0,0,0,0,0,0],"id":13,"left_children":[1,3,5,7,9,11,13,15,17,19,21,23,25,27,-1,29,31,33,35,37,39,41,-1,43,45,47,49,-1,51,53,-1,-1,55,57,59,61,63,65,67,69,71,73,75,77,79,81,83,-1,85,87,-1,89,91,-1,-1,-1,-1,-1,-1,-1,-1,-1,-1,-1,-1,-1,-1,-1,-1,-1,-1,-1,-1,-1,-1,-1,-1,-1,-1,-1,-1,-1,-1,-1,-1,-1,-1,-1,-1,-1,-1,-1,-1],"loss_changes":[1.5131117E4,1.7431066E4,1.4875967E3,4.459507E4,5.2625986E3,1.9073696E3,2.4789062E1,7.643359E1,1.3437432E3,6.7881206E3,1.1219238E2,2.8099307E3,1.8625977E1,1.7930322E2,0E0,2.1738281E1,1.257666E1,1.2270383E3,1.016167E2,8.617318E3,8.8543945E2,2.8157324E2,0E0,5.150579E3,5.0612305E1,5.896831E2,4.909668E-1,0E0,2.4105469E1,1.0589844E1,0E0,0E0,2.1691895E-1,2.099473E3,1.499248E2,1.4528516E2,1.1072632E1,7.604827E3,3.727295E1,5.1306104E2,5.549272E2,7.629442E2,1.3437012E1,1.350717E3,9.098193E1,6.932153E1,1.845459E0,0E0,7.5878906E0,2.4072266E-1,0E0,7.049147E2,9.98584E0,0E0,0E0,0E0,0E0,0E0,0E0,0E0,0E0,0E0,0E0,0E0,0E0,0E0,0E0,0E0,0E0,0E0,0E0,0E0,0E0,0E0,0E0,0E0,0E0,0E0,0E0,0E0,0E0,0E0,0E0,0E0,0E0,0E0,0E0,0E0,0E0,0E0,0E0,0E0,0E0],"parents":[2147483647,0,0,1,1,2,2,3,3,4,4,5,5,6,6,7,7,8,8,9,9,10,10,11,11,12,12,13,13,15,15,16,16,17,17,18,18,19,19,20,20,21,21,23,23,24,24,25,25,26,26,28,28,29,29,32,32,33,33,34,34,35,35,36,36,37,37,38,38,39,39,40,40,41,41,42,42,43,43,44,44,45,45,46,46,48,48,49,49,51,51,52,52],"right_children":[2,4,6,8,10,12,14,16,18,20,22,24,26,28,-1,30,32,34,36,38,40,42,-1,44,46,48,50,-1,52,54,-1,-1,56,58,60,62,64,66,68,70,72,74,76,78,80,82,84,-1,86,88,-1,90,92,-1,-1,-1,-1,-1,-1,-1,-1,-1,-1,-1,-1,-1,-1,-1,-1,-1,-1,-1,-1,-1,-1,-1,-1,-1,-1,-1,-1,-1,-1,-1,-1,-1,-1,-1,-1,-1,-1,-1,-1],"split_conditions":[1E0,1E0,1E0,1E0,1E0,1E0,1E0,1E0,2E0,1E0,1E0,1E0,1E0,6E0,-6.833338E-2,1E0,2.6546258E-2,1E0,1E0,1E0,3.2920096E-2,1E0,-7.0925616E-2,1E0,1E0,1E0,1E0,7.696431E-2,1E0,1E0,8.160537E-2,8.229034E-2,9E0,1E0,1E0,1E0,1E0,1E0,1E0,1E0,1.3E1,1E0,1E0,1E0,1E0,1E0,1E0,8.089688E-2,1E0,1E0,-6.860081E-2,1E0,1E0,6.983328E-2,8.277014E-2,7.209067E-2,7.816963E-2,8.1338856E-4,-5.7769127E-2,-3.8572572E-2,-5.881847E-2,-4.323299E-2,-6.19339E-2,-4.932744E-2,-8.078223E-2,3.1744447E-2,-9.280052E-2,-5.92655E-2,-7.2399445E-2,-3.7360013E-2,-6.70524E-2,1.37887625E-2,-4.4959735E-2,-7.25102E-3,-6.753226E-2,-5.0071128E-2,-6.4560615E-2,1.9589307E-2,-4.4545155E-2,-4.764602E-2,-6.273851E-2,-4.6585627E-2,-6.6251E-2,-6.741417E-2,-6.2723406E-2,-5.9014004E-2,-6.543168E-2,-6.278565E-2,-6.716474E-2,7.4215166E-2,-6.664009E-2,-6.0797848E-2,-6.9555335E-2],"split_indices":[10,36,42,37,27,39,18,26,22,26,75,41,24,15,0,27,20,26,72,31,20,73,0,40,85,11,75,0,11,31,0,0,15,27,73,73,54,30,42,61,15,76,54,59,11,84,23,0,85,76,0,24,73,0,0,0,0,0,0,0,0,0,0,0,0,0,0,0,0,0,0,0,0,0,0,0,0,0,0,0,0,0,0,0,0,0,0,0,0,0,0,0,0],"split_type":[0,0,0,0,0,0,0,0,0,0,0,0,0,0,0,0,0,0,0,0,0,0,0,0,0,0,0,0,0,0,0,0,0,0,0,0,0,0,0,0,0,0,0,0,0,0,0,0,0,0,0,0,0,0,0,0,0,0,0,0,0,0,0,0,0,0,0,0,0,0,0,0,0,0,0,0,0,0,0,0,0,0,0,0,0,0,0,0,0,0,0,0,0],"sum_hessian":[1.09154875E5,8.476128E4,2.4393594E4,4.4168215E4,4.0593066E4,2.0360705E4,4.0328887E3,2.7423822E4,1.6744393E4,3.4520793E4,6.0722744E3,1.6447969E4,3.9127349E3,2.7475E3,1.2853887E3,2.4997201E4,2.42662E3,1.2107911E4,4.636481E3,2.2651037E4,1.1869757E4,4.9502915E3,1.1219825E3,1.2441708E4,4.0062617E3,2.2904453E3,1.6222896E3,2.3000284E1,2.7244998E3,2.45551E4,4.421021E2,1.627808E3,7.9881213E2,8.395914E3,3.7119976E3,4.1932266E3,4.4325455E2,1.9126889E4,3.5241472E3,1.0020873E4,1.8488835E3,2.108888E3,2.8414038E3,8.352113E3,4.0895947E3,2.117101E3,1.8891604E3,7.3607864E1,2.2168374E3,1.3213213E3,3.0096832E2,1.202712E3,1.5217877E3,2.4367326E4,1.8777342E2,5.737132E2,2.2509889E2,6.3859346E3,2.0099799E3,2.0340472E3,1.6779502E3,2.0005143E3,2.1927122E3,3.628699E1,4.0696756E2,1.7811598E4,1.3152905E3,2.8229E3,7.012475E2,8.252671E3,1.7682023E3,1.2597756E3,5.8910785E2,9.832086E2,1.1256794E3,1.9127003E2,2.6501338E3,7.4301465E3,9.2196686E2,1.8366362E3,2.2529585E3,1.4557535E3,6.613476E2,5.651698E2,1.3239906E3,1.1341481E3,1.0826893E3,9.9931177E2,3.220095E2,9.5748116E1,1.106964E3,7.7670953E2,7.450782E2],"tree_param":{"num_deleted":"0","num_feature":"87","num_nodes":"93","size_leaf_vector":"1"}},{"base_weights":[-3.199326E-4,1.3634062E-1,-9.7797596E-1,3.102713E-1,-9.938587E-1,-8.587545E-1,-1.2568867E0,5.4686683E-1,-9.709713E-1,-8.773717E-1,-1.2665358E0,1.6130252E0,-9.3078244E-1,-1.2315886E0,-1.6728892E0,9.0782213E-1,-8.535749E-1,-7.804704E-1,-1.1637484E0,1.5590596E0,-9.530601E-1,-1.2337083E0,-1.7584113E0,7.776364E-2,2.2560992E0,-6.7176926E-1,-1.094503E0,-1.2873104E0,-1.0571395E0,-1.7531421E0,4.8377118E-1,1.494624E0,-7.761643E-1,4.7329587E-1,-9.020001E-1,-3.3990425E-1,-1.2723877E0,-1.1175046E0,-1.7081447E0,7.5907074E-2,1.9771261E0,-7.270014E-1,-1.0992602E0,-1.1319313E0,-1.3323734E0,-1.6399972E0,-9.352446E-2,7.6870464E-2,1.2840663E-1,-3.3934805E-1,-9.8295975E-1,-9.8816794E-1,-1.3373431E0,-1.3299253E0,-1.1650273E0,-7.513066E-1,-1.3040727E0,-1.6157259E0,-9.332243E-2,7.291744E-2,-6.8468326E-1,7.2783165E-2,9.238144E-2,2.7052213E-2,-4.1450527E-2,7.276123E-2,-7.692276E-2,-3.362834E-2,-5.4485362E-2,2.2390984E-2,-6.038894E-2,-6.2477797E-2,-8.886298E-2,-4.821886E-2,-6.1556704E-2,-7.6369025E-2,-9.589646E-2,7.427723E-2,1.1704035E-1,-2.2126129E-2,-4.822473E-2,-5.3106677E-2,-8.343373E-2,-4.7279533E-2,-6.488247E-2,-6.478325E-2,-7.0107214E-2,5.4471143E-2,-8.529415E-2,-9.221735E-3,-6.4549394E-2,-4.044393E-2,-5.9254456E-2,-4.5208186E-2,-6.8582885E-2,-6.559986E-2,-8.368411E-2,-6.3410126E-2,-6.964705E-2,7.811077E-2,-6.61056E-2,-4.7376513E-2,-1.1770553E-3,-6.82175E-2,2.8780667E-2,5.461086E-2,-8.5034795E-2,8.190802E-3,-6.1197788E-2],"categories":[],"categories_nodes":[],"categories_segments":[],"categories_sizes":[],"default_left":[0,0,0,0,0,0,0,0,0,0,0,0,0,0,0,0,0,0,0,0,0,0,0,0,0,0,0,0,0,0,0,0,0,0,0,0,0,0,0,0,0,0,0,0,0,0,0,0,0,0,0,0,0,0,0,0,0,0,0,0,0,0,0,0,0,0,0,0,0,0,0,0,0,0,0,0,0,0,0,0,0,0,0,0,0,0,0,0,0,0,0,0,0,0,0,0,0,0,0,0,0,0,0,0,0,0,0,0,0],"id":14,"left_children":[1,3,5,7,9,11,13,15,17,19,21,23,25,27,29,31,33,35,37,39,41,43,45,-1,47,49,51,53,55,57,59,61,63,65,67,69,71,73,75,-1,77,79,81,83,85,87,-1,-1,-1,89,91,93,95,97,99,101,103,105,-1,-1,107,-1,-1,-1,-1,-1,-1,-1,-1,-1,-1,-1,-1,-1,-1,-1,-1,-1,-1,-1,-1,-1,-1,-1,-1,-1,-1,-1,-1,-1,-1,-1,-1,-1,-1,-1,-1,-1,-1,-1,-1,-1,-1,-1,-1,-1,-1,-1,-1],"loss_changes":[1.435786E4,1.8534309E4,4.371631E2,2.4769848E4,3.9830762E2,1.6458442E3,3.945166E1,3.4866977E4,4.668506E2,1.6268887E3,5.85708E1,6.217163E0,3.7985986E2,3.48208E1,3.9501587E1,5.419225E4,9.0866113E2,1.3886255E3,1.5741504E2,1.5477905E0,2.8174805E2,3.393701E1,2.4658203E-2,0E0,3.9363098E-1,3.595089E2,1.406377E2,1.3126953E1,6.749243E1,3.4020996E-1,1.1014974E1,5.5664844E2,9.86959E2,9.867026E2,5.8659375E2,2.3130005E3,3.2681152E1,1.00359375E2,1.578894E1,0E0,1.6989136E-1,2.2661658E2,1.07938965E2,5.263086E1,2.7590332E0,2.369168E1,0E0,0E0,0E0,2.4793538E2,6.224121E1,1.2205127E2,1.2052246E1,6.32959E0,3.1733948E2,5.815512E1,5.7468506E1,2.598236E1,0E0,0E0,2.3422337E0,0E0,0E0,0E0,0E0,0E0,0E0,0E0,0E0,0E0,0E0,0E0,0E0,0E0,0E0,0E0,0E0,0E0,0E0,0E0,0E0,0E0,0E0,0E0,0E0,0E0,0E0,0E0,0E0,0E0,0E0,0E0,0E0,0E0,0E0,0E0,0E0,0E0,0E0,0E0,0E0,0E0,0E0,0E0,0E0,0E0,0E0,0E0,0E0],"parents":[2147483647,0,0,1,1,2,2,3,3,4,4,5,5,6,6,7,7,8,8,9,9,10,10,11,11,12,12,13,13,14,14,15,15,16,16,17,17,18,18,19,19,20,20,21,21,22,22,24,24,25,25,26,26,27,27,28,28,29,29,30,30,31,31,32,32,33,33,34,34,35,35,36,36,37,37,38,38,40,40,41,41,42,42,43,43,44,44,45,45,49,49,50,50,51,51,52,52,53,53,54,54,55,55,56,56,57,57,60,60],"right_children":[2,4,6,8,10,12,14,16,18,20,22,24,26,28,30,32,34,36,38,40,42,44,46,-1,48,50,52,54,56,58,60,62,64,66,68,70,72,74,76,-1,78,80,82,84,86,88,-1,-1,-1,90,92,94,96,98,100,102,104,106,-1,-1,108,-1,-1,-1,-1,-1,-1,-1,-1,-1,-1,-1,-1,-1,-1,-1,-1,-1,-1,-1,-1,-1,-1,-1,-1,-1,-1,-1,-1,-1,-1,-1,-1,-1,-1,-1,-1,-1,-1,-1,-1,-1,-1,-1,-1,-1,-1,-1,-1],"split_conditions":[1E0,1E0,1E0,1E0,1E0,6E0,1.3390153E1,1E0,1E0,6E0,1.3064465E1,1E0,1E0,1.520209E6,1.9707658E6,1E0,1E0,1E0,1.3064465E1,1E0,1E0,1E0,1E0,7.776364E-2,1E0,1E0,2E0,6E0,1.7234381E6,1E0,1E0,1E0,1E0,1E0,1E0,1E0,1E0,1E0,1E0,7.5907074E-2,1E0,1E0,1.2752814E1,1E0,1E0,1E0,-9.352446E-2,7.6870464E-2,1.2840663E-1,1E0,1E0,1E0,1.17272005E1,1E0,2.2E1,1.6912636E6,1.00186E1,1E0,-9.332243E-2,7.291744E-2,3E0,7.2783165E-2,9.238144E-2,2.7052213E-2,-4.1450527E-2,7.276123E-2,-7.692276E-2,-3.362834E-2,-5.4485362E-2,2.2390984E-2,-6.038894E-2,-6.2477797E-2,-8.886298E-2,-4.821886E-2,-6.1556704E-2,-7.6369025E-2,-9.589646E-2,7.427723E-2,1.1704035E-1,-2.2126129E-2,-4.822473E-2,-5.3106677E-2,-8.343373E-2,-4.7279533E-2,-6.488247E-2,-6.478325E-2,-7.0107214E-2,5.4471143E-2,-8.529415E-2,-9.221735E-3,-6.4549394E-2,-4.044393E-2,-5.9254456E-2,-4.5208186E-2,-6.8582885E-2,-6.559986E-2,-8.368411E-2,-6.3410126E-2,-6.964705E-2,7.811077E-2,-6.61056E-2,-4.7376513E-2,-1.1770553E-3,-6.82175E-2,2.8780667E-2,5.461086E-2,-8.5034795E-2,8.190802E-3,-6.1197788E-2],"split_indices":[38,39,18,41,18,15,14,42,36,15,14,26,5,3,3,40,32,37,14,26,5,36,30,0,36,13,22,15,3,30,54,26,32,1,13,24,30,13,30,0,36,13,14,37,26,29,0,0,0,60,85,61,14,85,15,3,14,29,0,0,16,0,0,0,0,0,0,0,0,0,0,0,0,0,0,0,0,0,0,0,0,0,0,0,0,0,0,0,0,0,0,0,0,0,0,0,0,0,0,0,0,0,0,0,0,0,0,0,0],"split_type":[0,0,0,0,0,0,0,0,0,0,0,0,0,0,0,0,0,0,0,0,0,0,0,0,0,0,0,0,0,0,0,0,0,0,0,0,0,0,0,0,0,0,0,0,0,0,0,0,0,0,0,0,0,0,0,0,0,0,0,0,0,0,0,0,0,0,0,0,0,0,0,0,0,0,0,0,0,0,0,0,0,0,0,0,0,0,0,0,0,0,0,0,0,0,0,0,0,0,0,0,0,0,0,0,0,0,0,0,0],"sum_hessian":[1.0746138E5,9.4283E4,1.3178382E4,8.170919E4,1.25738125E4,9.234947E3,3.9434348E3,6.897312E4,1.273607E4,8.813096E3,3.7607158E3,2.60882E2,8.974065E3,3.721106E3,2.2232874E2,5.483904E4,1.4134076E4,6.408393E3,6.3276777E3,2.6494174E2,8.548154E3,3.52872E3,2.3199596E2,2.4252055E2,1.8361437E1,3.4775432E3,5.4965225E3,2.8154321E3,9.0567377E2,2.1453271E2,7.7960224E0,4.0667984E4,1.4171054E4,4.9736282E2,1.3636714E4,3.3815417E3,3.026851E3,5.8350693E3,4.926083E2,2.4554077E2,1.9400957E1,3.3595293E3,5.188625E3,1.7431072E3,1.7856127E3,1.2041069E2,1.11585266E2,7.3529177E0,1.100852E1,1.6824258E3,1.7951173E3,3.8261787E3,1.6703436E3,2.080512E3,7.3492035E2,4.0639102E2,4.9928275E2,1.0384769E2,1.1068503E2,4.1153855E0,3.680637E0,3.6630273E4,4.0377112E3,5.4625464E2,1.3624799E4,3.3441345E2,1.6294939E2,6.1383833E3,7.4983306E3,1.772878E3,1.6086638E3,2.899215E3,1.2763607E2,2.489585E3,3.3454841E3,2.6905423E2,2.235541E2,1.041199E1,8.988967E0,1.5298622E3,1.8296671E3,4.8737173E3,3.1490793E2,8.236575E2,9.1944977E2,1.1828514E3,6.027613E2,2.4719357E0,1.1793876E2,1.4479191E3,2.3450671E2,9.6716327E2,8.2795404E2,3.1414053E3,6.847736E2,1.5578478E3,1.12495865E2,1.061711E3,1.0188008E3,3.9537655E1,6.953827E2,3.1984964E2,8.654138E1,4.84035E2,1.5247719E1,2.7987604E0,1.0104893E2,1.7008002E0,1.9798367E0],"tree_param":{"num_deleted":"0","num_feature":"87","num_nodes":"109","size_leaf_vector":"1"}},{"base_weights":[7.1515195E-4,1.7062004E-1,-7.6673937E-1,3.0010158E-1,-8.4726846E-1,-5.403798E-1,-1.0489521E0,4.5991E-1,-8.6243045E-1,-8.7449867E-1,1.5938419E0,-2.9225215E-1,-8.7711847E-1,-9.057082E-1,-1.1891589E0,6.7018205E-1,-8.379124E-1,-8.899501E-1,1.5383774E0,-7.35987E-1,-1.2097641E0,7.52729E-2,9.776547E-2,3.6106497E-2,-1.1431087E0,-7.901325E-1,-1.2957928E0,-5.7977474E-1,-1.2316061E0,-1.1649122E0,-1.75115E0,9.8552847E-1,-7.246811E-1,-8.634468E-1,7.4765675E-2,-6.943559E-1,-1.0902085E0,7.42272E-2,1.0831769E-1,1.5767225E0,-8.0963767E-1,-1.1890434E0,-1.7640152E0,7.031824E-1,-1.1397257E0,-9.9339503E-1,-1.3073684E0,